svm_type c_svc
kernel_type polynomial
degree 3
gamma 1
coef0 1
nr_class 2
total_sv 1358
rho 1.00002
label 1 -1
nr_sv 542 816
SV
0.01 1:0.44066992 2:-4.3504375 
0.01 1:0.27822461 2:-4.0888125 
0.01 1:0.28741406 2:-4.3654375 
0.01 1:0.18921094 2:-3.328375 
0.01 1:0.34156641 2:-4.8388125 
0.01 1:0.28816211 2:-3.75325 
0.01 1:0.42295508 2:-4.58325 
0.01 1:0.35011133 2:-4.5961875 
0.01 1:0.30645703 2:-2.082 
0.01 1:0.33792773 2:-3.1846875 
0.01 1:0.41233789 2:-5.5705 
0.01 1:0.35138672 2:-4.4420625 
0.01 1:0.24904883 2:-4.0290625 
0.01 1:0.26214258 2:-4.100125 
0.01 1:0.27826172 2:-4.4676875 
0.01 1:0.33248828 2:-2.502 
0.01 1:0.36280664 2:-5.8456875 
0.01 1:0.35701172 2:-4.0114375 
0.01 1:0.33430859 2:-3.2810625 
0.01 1:0.29611523 2:-5.2068125 
0.01 1:0.32277539 2:-3.7033125 
0.01 1:0.33418555 2:-2.956375 
0.01 1:0.16690234 2:-2.8409375 
0.01 1:0.33725781 2:-3.869 
0.01 1:0.25451758 2:-1.7416875 
0.01 1:0.30048633 2:-3.50575 
0.01 1:0.24953906 2:-2.5758125 
0.01 1:0.2707207 2:-4.2679375 
0.01 1:0.37868359 2:-4.4215 
0.01 1:0.22776367 2:-2.785125 
0.01 1:0.33098047 2:-2.8483125 
0.01 1:0.39789844 2:-2.9333125 
0.01 1:0.31657031 2:-3.592375 
0.01 1:0.21885156 2:-1.7906875 
0.01 1:0.31800195 2:-2.7066875 
0.01 1:0.19188281 2:-2.0279375 
0.01 1:0.17126758 2:-2.6516875 
0.01 1:0.29497461 2:-2.2556875 
0.01 1:0.28387305 2:-3.2044375 
0.01 1:0.40943945 2:-2.8265625 
0.01 1:0.20573242 2:-2.702 
0.01 1:0.34373047 2:-3.911375 
0.01 1:0.24505859 2:-3.2475 
0.01 1:0.26678516 2:-2.513375 
0.01 1:0.25408203 2:-4.2065 
0.01 1:0.3456543 2:-3.2239375 
0.01 1:0.24648828 2:-3.09025 
0.01 1:0.19146289 2:-3.1794375 
0.01 1:0.32058789 2:-2.162375 
0.01 1:0.343625 2:-3.1510625 
0.01 1:0.30064063 2:-4.62675 
0.01 1:0.25929492 2:-3.3233125 
0.01 1:0.23530273 2:-1.1014375 
0.01 1:0.28984375 2:-4.7261875 
0.01 1:0.25291602 2:-4.2434375 
0.01 1:0.20922266 2:-2.4875625 
0.01 1:0.18249414 2:-3.0206875 
0.01 1:0.2452207 2:-4.069625 
0.01 1:0.47007031 2:-3.4156875 
0.01 1:0.25875391 2:-3.735125 
0.01 1:0.25331055 2:-5.259125 
0.01 1:0.33484375 2:-4.3180625 
0.01 1:0.19809375 2:-3.069 
0.01 1:0.23054297 2:-3.08525 
0.01 1:0.22968555 2:-4.1193125 
0.01 1:0.39870508 2:-6.2614375 
0.01 1:0.33263477 2:-5.3505 
0.01 1:0.25126563 2:-2.5884375 
0.01 1:0.28254102 2:-2.7315 
0.01 1:0.24461719 2:-3.759875 
0.01 1:0.30981836 2:-2.747 
0.01 1:0.25489844 2:-3.386625 
0.01 1:0.28346094 2:-1.1570625 
0.01 1:0.26345898 2:-4.1485 
0.01 1:0.28462109 2:-2.889125 
0.01 1:0.1962832 2:-2.790375 
0.01 1:0.16263086 2:-2.6108125 
0.01 1:0.17793555 2:-1.9318125 
0.01 1:0.28441602 2:-4.591875 
0.01 1:0.29831641 2:-1.8839375 
0.01 1:0.32322461 2:-4.9383125 
0.01 1:0.22491602 2:-2.3835 
0.01 1:0.29147852 2:-2.597125 
0.01 1:0.19753516 2:-3.424375 
0.01 1:0.27897461 2:-2.5580625 
0.01 1:0.43238867 2:-2.8535625 
0.01 1:0.32033984 2:-3.4545625 
0.01 1:0.27245117 2:-3.922625 
0.01 1:0.12591406 2:-1.9669375 
0.01 1:0.23814258 2:-3.4095 
0.01 1:0.3985957 2:-4.82175 
0.01 1:0.24329297 2:-3.091 
0.01 1:0.25313672 2:-2.7315 
0.01 1:0.27132227 2:-3.500875 
0.01 1:0.35445117 2:-2.0418125 
0.01 1:0.31777148 2:-5.3259375 
0.01 1:0.41664844 2:-5.8334375 
0.01 1:0.37456445 2:-3.8265 
0.01 1:0.29933008 2:-3.1620625 
0.01 1:0.17382031 2:-1.9191875 
0.01 1:0.16448242 2:-2.1161875 
0.01 1:0.37798242 2:-5.36075 
0.01 1:0.35523242 2:-5.1198125 
0.01 1:0.2519707 2:-2.6255625 
0.01 1:0.30011328 2:-3.26075 
0.01 1:0.2056543 2:-2.8788125 
0.01 1:0.2994707 2:-3.6604375 
0.01 1:0.28832227 2:-3.2866875 
0.01 1:0.12416602 2:-2.0903125 
0.01 1:0.11805469 2:-2.27 
0.01 1:0.17107227 2:-1.879375 
0.01 1:0.26833398 2:-4.8129375 
0.01 1:0.17469141 2:-2.1999375 
0.01 1:0.18063281 2:-1.7966875 
0.01 1:0.15491016 2:-3.04925 
0.01 1:0.23418945 2:-3.1060625 
0.01 1:0.34679102 2:-4.3859375 
0.01 1:0.18732031 2:-3.1871875 
0.01 1:0.24810742 2:-2.2230625 
0.01 1:0.20545117 2:-3.250625 
0.01 1:0.20155859 2:-2.3331875 
0.01 1:0.34156445 2:-3.5378125 
0.01 1:0.37650977 2:-3.31375 
0.01 1:0.35983789 2:-4.137 
0.01 1:0.18253516 2:-3.388375 
0.01 1:0.31178516 2:-2.6841875 
0.01 1:0.28626953 2:-2.63325 
0.01 1:0.3564082 2:-4.6351875 
0.01 1:0.29650781 2:-3.8868125 
0.01 1:0.31982812 2:-5.0585 
0.01 1:0.30227734 2:-2.2331875 
0.01 1:0.28037109 2:-1.59875 
0.01 1:0.21647656 2:-1.9361875 
0.01 1:0.24942188 2:-1.6803125 
0.01 1:0.25853125 2:-4.44175 
0.01 1:0.21929688 2:-1.9210625 
0.01 1:0.3401875 2:-1.4686875 
0.01 1:0.32116602 2:-1.6766875 
0.01 1:0.23394336 2:-2.904 
0.01 1:0.2692793 2:-4.3863125 
0.01 1:0.28656836 2:-5.2745 
0.01 1:0.34270508 2:-2.6396875 
0.01 1:0.22915234 2:-1.374375 
0.01 1:0.33480664 2:-2.5214375 
0.01 1:0.27562891 2:-3.6761875 
0.01 1:0.28976953 2:-3.163375 
0.01 1:0.34318555 2:-4.044125 
0.01 1:0.26531055 2:-4.804 
0.01 1:0.26812109 2:-3.9265625 
0.01 1:0.241125 2:-3.359 
0.01 1:0.35424609 2:-4.1588125 
0.01 1:0.1582793 2:-2.42875 
0.01 1:0.2905 2:-5.1194375 
0.01 1:0.20248633 2:-1.470125 
0.01 1:0.21135742 2:-2.489 
0.01 1:0.31603125 2:-3.776875 
0.01 1:0.23958398 2:-2.7159375 
0.01 1:0.34157617 2:-4.2260625 
0.01 1:0.36369141 2:-2.1930625 
0.01 1:0.32398242 2:-3.5039375 
0.01 1:0.20150586 2:-2.223875 
0.01 1:0.21023242 2:-3.081125 
0.01 1:0.38706445 2:-4.7500625 
0.01 1:0.25750977 2:-2.2086875 
0.01 1:0.3180957 2:-4.3368125 
0.01 1:0.31791016 2:-3.7708125 
0.01 1:0.48707422 2:-3.45225 
0.01 1:0.3085 2:-4.161875 
0.01 1:0.26771875 2:-2.972875 
0.01 1:0.22813086 2:-2.677875 
0.01 1:0.40599219 2:-2.685625 
0.01 1:0.27122852 2:-3.7273125 
0.01 1:0.20182617 2:-3.198125 
0.01 1:0.24357227 2:-2.9170625 
0.01 1:0.42968359 2:-4.415625 
0.01 1:0.27746094 2:-4.6858125 
0.01 1:0.16998047 2:-2.7985625 
0.01 1:0.11469336 2:-1.1860625 
0.01 1:0.34663867 2:-2.43325 
0.01 1:0.30842383 2:-5.3401875 
0.01 1:0.30995703 2:-2.99925 
0.01 1:0.36791797 2:-1.7798125 
0.01 1:0.38985742 2:-2.2789375 
0.01 1:0.32626953 2:-3.5511875 
0.01 1:0.2986543 2:-4.975125 
0.01 1:0.1933457 2:-2.478125 
0.01 1:0.19559961 2:-2.8805625 
0.01 1:0.22288086 2:-0.879125 
0.01 1:0.22076758 2:-3.50925 
0.01 1:0.44749609 2:-3.6575625 
0.01 1:0.18795117 2:-2.6435 
0.01 1:0.21619336 2:-3.8670625 
0.01 1:0.16503906 2:-2.1281875 
0.01 1:0.27644531 2:-2.738125 
0.01 1:0.21367188 2:-3.5629375 
0.01 1:0.22887305 2:-3.4574375 
0.01 1:0.23996094 2:-4.4979375 
0.01 1:0.34984961 2:-4.391 
0.01 1:0.29217773 2:-3.0855625 
0.01 1:0.45689844 2:-4.434625 
0.01 1:0.43435742 2:-3.4658125 
0.01 1:0.18168164 2:-1.866875 
0.01 1:0.1979668 2:-3.116375 
0.01 1:0.20913672 2:-3.9043125 
0.01 1:0.20894531 2:-4.481875 
0.01 1:0.22959961 2:-2.5274375 
0.01 1:0.24679883 2:-3.1264375 
0.01 1:0.27471484 2:-2.5206875 
0.01 1:0.32786133 2:-4.434 
0.01 1:0.30963086 2:-2.8083125 
0.01 1:0.38985547 2:-3.799625 
0.01 1:0.21798437 2:-2.28275 
0.01 1:0.26881055 2:-3.0364375 
0.01 1:0.20781641 2:-1.73425 
0.01 1:0.32364258 2:-0.9266875 
0.01 1:0.18230469 2:-3.516875 
0.01 1:0.20025195 2:-2.91475 
0.01 1:0.19434375 2:-2.10675 
0.01 1:0.17934961 2:-4.0168125 
0.01 1:0.23202734 2:-1.8263125 
0.01 1:0.29225195 2:-2.52325 
0.01 1:0.19449023 2:-2.5605 
0.01 1:0.22368359 2:-2.012125 
0.01 1:0.20332227 2:-4.2685625 
0.01 1:0.22722266 2:-2.2946875 
0.01 1:0.26252344 2:-3.743625 
0.01 1:0.17598047 2:-3.4860625 
0.01 1:0.29560156 2:-2.88125 
0.01 1:0.33454297 2:-4.7880625 
0.01 1:0.33392969 2:-4.0231875 
0.01 1:0.30508789 2:-5.8201875 
0.01 1:0.26403125 2:-4.804125 
0.01 1:0.19893359 2:-3.0593125 
0.01 1:0.25470508 2:-0.922875 
0.01 1:0.42402148 2:-4.7025625 
0.01 1:0.38944922 2:-2.8925625 
0.01 1:0.26929297 2:-2.8614375 
0.01 1:0.27592773 2:-3.5386875 
0.01 1:0.26537109 2:-3.0890625 
0.01 1:0.38280273 2:-4.365125 
0.01 1:0.23808984 2:-4.31375 
0.01 1:0.22843164 2:-2.9856875 
0.01 1:0.33358984 2:-2.0735 
0.01 1:0.47258203 2:-5.1478125 
0.01 1:0.27886328 2:-2.8150625 
0.01 1:0.33678711 2:-3.9640625 
0.01 1:0.24440234 2:-2.9349375 
0.01 1:0.29697656 2:-3.7760625 
0.01 1:0.25325586 2:-2.34125 
0.01 1:0.23811523 2:-3.25 
0.01 1:0.25968164 2:-4.701 
0.01 1:0.25855664 2:-4.6235625 
0.01 1:0.19732812 2:-3.4299375 
0.01 1:0.39165625 2:-3.201875 
0.01 1:0.23148828 2:-3.603875 
0.01 1:0.38961328 2:-2.5674375 
0.01 1:0.53747656 2:-5.9125 
0.01 1:0.49851172 2:-4.012375 
0.01 1:0.34680664 2:-2.6586875 
0.01 1:0.32651172 2:-2.089 
0.01 1:0.23910742 2:-3.884375 
0.01 1:0.22402539 2:-2.560375 
0.01 1:0.19187109 2:-2.8835625 
0.01 1:0.25475977 2:-3.0795 
0.01 1:0.34861719 2:-3.627625 
0.01 1:0.26051563 2:-3.0916875 
0.01 1:0.26091406 2:-2.994125 
0.01 1:0.18579297 2:-1.535625 
0.01 1:0.27365625 2:-5.3413125 
0.01 1:0.4163418 2:-3.113875 
0.01 1:0.25458203 2:-3.885375 
0.01 1:0.17887109 2:-3.1995625 
0.01 1:0.16845703 2:-3.3035 
0.01 1:0.1959375 2:-2.11625 
0.01 1:0.23158594 2:-3.2494375 
0.01 1:0.11993555 2:-1.763125 
0.01 1:0.19563672 2:-3.308 
0.01 1:0.34460352 2:-4.310625 
0.01 1:0.27666992 2:-2.86875 
0.01 1:0.18776562 2:-4.5545625 
0.01 1:0.22798828 2:-2.3349375 
0.01 1:0.22554688 2:-3.4891875 
0.01 1:0.20121484 2:-2.59925 
0.01 1:0.20608203 2:-3.458125 
0.01 1:0.20105078 2:-2.6285625 
0.01 1:0.30475 2:-3.782375 
0.01 1:0.30993359 2:-4.1353125 
0.01 1:0.26016406 2:-4.3838125 
0.01 1:0.2137168 2:-3.3163125 
0.01 1:0.4074082 2:-3.9875 
0.01 1:0.25452539 2:-1.412375 
0.01 1:0.27808203 2:-3.8909375 
0.01 1:0.24561719 2:-2.2079375 
0.01 1:0.28167578 2:-4.304125 
0.01 1:0.27562695 2:-4.340375 
0.01 1:0.24125 2:-3.3565 
0.01 1:0.23192383 2:-3.22575 
0.01 1:0.28276953 2:-4.7361875 
0.01 1:0.34100781 2:-3.5708125 
0.01 1:0.23352539 2:-3.975125 
0.01 1:0.34244141 2:-3.0976875 
0.01 1:0.13290039 2:-2.3090625 
0.01 1:0.36560547 2:-4.0115625 
0.01 1:0.25330078 2:-2.620125 
0.01 1:0.21359375 2:-2.771125 
0.01 1:0.32594336 2:-3.5015 
0.01 1:0.33538281 2:-3.271875 
0.01 1:0.27471094 2:-5.619875 
0.01 1:0.24695898 2:-2.8726875 
0.01 1:0.25708008 2:-4.588 
0.01 1:0.17051563 2:-3.0683125 
0.01 1:0.19397852 2:-3.848375 
0.01 1:0.19169922 2:-3.3955 
0.01 1:0.27269141 2:-2.4061875 
0.01 1:0.24682813 2:-3.020875 
0.01 1:0.21110352 2:-3.1179375 
0.01 1:0.31226367 2:-3.6335625 
0.01 1:0.3218125 2:-4.0596875 
0.01 1:0.34258594 2:-4.0031875 
0.01 1:0.3360625 2:-5.0768125 
0.01 1:0.18131836 2:-2.6103125 
0.01 1:0.16165234 2:-2.727625 
0.01 1:0.2047832 2:-4.6410625 
0.01 1:0.20130273 2:-2.4938125 
0.01 1:0.252875 2:-4.820875 
0.01 1:0.28405273 2:-2.7609375 
0.01 1:0.20524805 2:-3.2940625 
0.01 1:0.23007227 2:-3.1764375 
0.01 1:0.22306445 2:-2.1304375 
0.01 1:0.26711914 2:-3.2993125 
0.01 1:0.24388867 2:-4.0931875 
0.01 1:0.28783594 2:-4.0601875 
0.01 1:0.15414062 2:-2.2021875 
0.01 1:0.22633984 2:-2.71225 
0.01 1:0.24400781 2:-3.856625 
0.01 1:0.23644727 2:-3.2451875 
0.01 1:0.29218359 2:-3.6641875 
0.01 1:0.28443359 2:-2.0958125 
0.01 1:0.23073047 2:-1.6185625 
0.01 1:0.36822461 2:-3.207625 
0.01 1:0.2292832 2:-3.793375 
0.01 1:0.23611133 2:-4.131375 
0.01 1:0.43701758 2:-4.488375 
0.01 1:0.38616211 2:-3.214625 
0.01 1:0.31565234 2:-4.6780625 
0.01 1:0.19752148 2:-2.3913125 
0.01 1:0.22680664 2:-3.8293125 
0.01 1:0.17201758 2:-2.700875 
0.01 1:0.30742383 2:-3.268875 
0.01 1:0.27598047 2:-3.708 
0.01 1:0.29252734 2:-2.577 
0.01 1:0.27103711 2:-3.3648125 
0.01 1:0.32322656 2:-3.5009375 
0.01 1:0.22158984 2:-3.21225 
0.01 1:0.23028906 2:-4.82625 
0.01 1:0.17536328 2:-3.52325 
0.01 1:0.24296484 2:-4.9265625 
0.01 1:0.20635547 2:-3.31375 
0.01 1:0.20316992 2:-3.5863125 
0.01 1:0.34807617 2:-3.3745 
0.01 1:0.23117383 2:-1.6263125 
0.01 1:0.17340039 2:-2.8970625 
0.01 1:0.1824375 2:-2.253375 
0.01 1:0.22170898 2:-2.994125 
0.01 1:0.2059375 2:-3.43675 
0.01 1:0.18333789 2:-2.972125 
0.01 1:0.32995703 2:-5.0885625 
0.01 1:0.34518164 2:-3.089625 
0.01 1:0.21728125 2:-3.6040625 
0.01 1:0.24790234 2:-2.0054375 
0.01 1:0.24279883 2:-4.3206875 
0.01 1:0.16273437 2:-3.362 
0.01 1:0.14829883 2:-3.12725 
0.01 1:0.28289062 2:-4.6854375 
0.01 1:0.29769922 2:-3.3219375 
0.01 1:0.26974414 2:-2.4686875 
0.01 1:0.41063281 2:-3.0335 
0.01 1:0.27291406 2:-4.54875 
0.01 1:0.33769336 2:-4.9349375 
0.01 1:0.37672852 2:-2.83925 
0.01 1:0.27688086 2:-3.00525 
0.01 1:0.34779297 2:-3.0171875 
0.01 1:0.23342188 2:-3.4863125 
0.01 1:0.28263867 2:-4.5860625 
0.01 1:0.3217832 2:-2.419625 
0.01 1:0.39533594 2:-6.7176875 
0.01 1:0.28213672 2:-5.9331875 
0.01 1:0.32939453 2:-4.4934375 
0.01 1:0.32936133 2:-2.6848125 
0.01 1:0.32199414 2:-3.3899375 
0.01 1:0.21166602 2:-4.4863125 
0.01 1:0.28295508 2:-0.9159375 
0.01 1:0.28249219 2:-5.382 
0.01 1:0.37358398 2:-1.4289375 
0.01 1:0.45644531 2:-5.909 
0.01 1:0.28070703 2:-3.386625 
0.01 1:0.40866992 2:-6.1975625 
0.01 1:0.25119922 2:-4.5901875 
0.01 1:0.35639844 2:-5.66275 
0.01 1:0.29777344 2:-3.685375 
0.01 1:0.21851953 2:-2.33275 
0.01 1:0.32717578 2:-3.737625 
0.01 1:0.28992578 2:-2.24675 
0.01 1:0.35313672 2:-3.7525625 
0.01 1:0.24664258 2:-2.0425625 
0.01 1:0.38183594 2:-2.5176875 
0.01 1:0.36061719 2:-4.7583125 
0.01 1:0.24798438 2:-1.645375 
0.01 1:0.26118359 2:-3.87125 
0.01 1:0.16975977 2:-3.0816875 
0.01 1:0.33693945 2:-3.259875 
0.01 1:0.25019141 2:-3.5898125 
0.01 1:0.29958203 2:-3.055375 
0.01 1:0.23005273 2:-3.1355625 
0.01 1:0.26474414 2:-4.135375 
0.01 1:0.39456641 2:-5.40375 
0.01 1:0.33640234 2:-3.262875 
0.01 1:0.31878516 2:-2.9740625 
0.01 1:0.19802344 2:-3.217 
0.01 1:0.18999219 2:-2.8030625 
0.01 1:0.48124219 2:-4.2619375 
0.01 1:0.39850391 2:-5.1421875 
0.01 1:0.29498828 2:-3.6255 
0.01 1:0.22382227 2:-3.1024375 
0.01 1:0.63630273 2:-3.811125 
0.01 1:0.39998242 2:-5.83025 
0.01 1:0.30944727 2:-4.920875 
0.01 1:0.38100195 2:-4.0913125 
0.01 1:0.19657227 2:-2.5599375 
0.01 1:0.28523633 2:-5.0523125 
0.01 1:0.30372656 2:-3.7325 
0.01 1:0.34957617 2:-4.8681875 
0.01 1:0.22933008 2:-1.4585 
0.01 1:0.20953125 2:-2.31975 
0.01 1:0.33252148 2:-2.671125 
0.01 1:0.33732617 2:-2.0031875 
0.01 1:0.24621484 2:-2.1268125 
0.01 1:0.26848047 2:-2.389375 
0.01 1:0.20867188 2:-2.972625 
0.01 1:0.26129297 2:-3.4439375 
0.01 1:0.36631055 2:-4.4484375 
0.01 1:0.21107031 2:-2.5110625 
0.01 1:0.24078906 2:-3.714875 
0.01 1:0.36097656 2:-4.47375 
0.01 1:0.22273828 2:-3.67025 
0.01 1:0.21485938 2:-2.81125 
0.01 1:0.15041211 2:-2.840125 
0.01 1:0.26586328 2:-1.8378125 
0.01 1:0.16663672 2:-0.9226875 
0.01 1:0.33104102 2:-2.396 
0.01 1:0.24013281 2:-3.9851875 
0.01 1:0.29282812 2:-3.0000625 
0.01 1:0.21201367 2:-2.6100625 
0.01 1:0.25363281 2:-2.1921875 
0.01 1:0.31439063 2:-1.372 
0.01 1:0.32114258 2:-3.879125 
0.01 1:0.34213672 2:-2.21525 
0.01 1:0.31833984 2:-3.9101875 
0.01 1:0.18915625 2:-2.730375 
0.01 1:0.2424082 2:-4.52975 
0.01 1:0.12989258 2:-2.002875 
0.01 1:0.16420898 2:-2.2751875 
0.01 1:0.35279102 2:-1.1444375 
0.01 1:0.37254492 2:-3.54475 
0.01 1:0.32970117 2:-4.3779375 
0.01 1:0.32062891 2:-3.608625 
0.01 1:0.23587695 2:-3.104625 
0.01 1:0.20524414 2:-2.742625 
0.01 1:0.34828516 2:-4.4009375 
0.01 1:0.4075293 2:-3.602375 
0.01 1:0.27020117 2:-4.633875 
0.01 1:0.34442578 2:-4.14075 
0.01 1:0.28167188 2:-1.3150625 
0.01 1:0.33244727 2:-5.4505 
0.01 1:0.25854297 2:-1.9469375 
0.01 1:0.28335937 2:-5.64725 
0.01 1:0.21907617 2:-2.309 
0.01 1:0.20453516 2:-2.7575 
0.01 1:0.24589844 2:-2.381375 
0.01 1:0.38547461 2:-3.8594375 
0.01 1:0.18537305 2:-2.150125 
0.01 1:0.2485918 2:-3.072625 
0.01 1:0.2670332 2:-4.2991875 
0.01 1:0.32821484 2:-3.377375 
0.01 1:0.27573242 2:-2.024875 
0.01 1:0.27304883 2:-2.7235625 
0.01 1:0.35416211 2:-5.13225 
0.01 1:0.2853125 2:-2.308875 
0.01 1:0.35437891 2:-3.67175 
0.01 1:0.48145117 2:-3.388 
0.01 1:0.27879883 2:-4.7460625 
0.01 1:0.19296289 2:-2.1853125 
0.01 1:0.27455664 2:-1.5620625 
0.01 1:0.24530078 2:-2.4893125 
0.01 1:0.31470898 2:-5.022375 
0.01 1:0.37425977 2:-6.9378125 
0.01 1:0.18386523 2:-2.3635 
0.01 1:0.22955859 2:-3.2878125 
0.01 1:0.20196094 2:-2.5460625 
0.01 1:0.19316602 2:-1.945125 
0.01 1:0.24685352 2:-3.0428125 
0.01 1:0.24696484 2:-2.446625 
0.01 1:0.26777344 2:-3.47225 
0.01 1:0.25980469 2:-4.1055 
0.01 1:0.17983789 2:-2.21075 
0.01 1:0.44936328 2:-4.8013125 
0.01 1:0.41378516 2:-2.7640625 
0.01 1:0.3052793 2:-3.3136875 
0.01 1:0.20828906 2:-3.446375 
0.01 1:0.16669336 2:-3.11175 
0.01 1:0.24243945 2:-2.4279375 
0.01 1:0.55966797 2:-2.449125 
0.01 1:0.27969727 2:-5.0708125 
0.01 1:0.34248828 2:-3.007375 
0.01 1:0.26470703 2:-3.743375 
0.01 1:0.2560957 2:-3.5296875 
0.01 1:0.21010352 2:-2.54275 
0.01 1:0.33385547 2:-3.1575 
0.01 1:0.22311914 2:-3.4271875 
0.01 1:0.40074023 2:-6.8451875 
0.01 1:0.16269141 2:-2.1070625 
0.01 1:0.33954297 2:-2.632375 
0.01 1:0.25723242 2:-3.903625 
0.01 1:0.41551562 2:-4.2259375 
0.01 1:0.2454043 2:-2.608125 
0.01 1:0.16996094 2:-2.7726875 
0.01 1:0.27501172 2:-4.4645625 
0.01 1:0.33283984 2:-3.3153125 
0.01 1:0.30686133 2:-6.5006875 
0.01 1:0.26757422 2:-3.5734375 
0.01 1:0.27630664 2:-2.03475 
0.01 1:0.30235937 2:-5.8390625 
0.01 1:0.24019922 2:-3.4763125 
0.01 1:0.4194082 2:-4.9998125 
0.01 1:0.28808594 2:-2.365375 
0.01 1:0.3371582 2:-3.8149375 
0.01 1:0.29001562 2:-3.314 
0.01 1:0.29567383 2:-3.2821875 
0.01 1:0.2689082 2:-3.412375 
0.01 1:0.24613477 2:-3.1555 
0.01 1:0.14553125 2:-1.92825 
0.01 1:0.25189063 2:-3.2545 
-2.41230936137648e-06 1:0.11385937 2:-0.931375 
-0.01 1:0.20682227 2:-2.31725 
-0.01 1:0.26739844 2:-3.47025 
-0.000704901582127447 1:0.57900781 2:-2.849625 
-0.01 1:0.32394141 2:-4.4250625 
-0.008101412409401687 1:0.26885156 2:-3.674875 
-0.0089238552500162 1:0.37638086 2:-6.194875 
-0.01 1:0.33438867 2:-4.930875 
-0.009999999999999995 1:0.26610156 2:-3.7638125 
-0.009512849448333457 1:0.31361914 2:-3.78425 
-0.009546456286980046 1:0.42530273 2:-3.6656875 
-0.009999999999999997 1:0.1857832 2:-3.4355625 
-0.008194044880005099 1:0.41161914 2:-3.4816875 
-0.009920096149298094 1:0.47179688 2:-4.263875 
-2.53097328598299e-05 1:0.40496289 2:-6.0150625 
-0.001821360035354324 1:0.29694531 2:-3.1875 
-0.01 1:0.18338477 2:-1.7868125 
-0.00996915153697465 1:0.45131445 2:-4.8573125 
-0.002729931834318637 1:0.15353516 2:-2.9208125 
-0.01 1:0.38668359 2:-2.8516875 
-0.001174414492900739 1:0.33870313 2:-4.6759375 
-0.005121078689888708 1:0.29733594 2:-3.103625 
-0.01 1:0.20225391 2:-2.3948125 
-0.00975340363146391 1:0.36934766 2:-3.1859375 
-0.005478370820463706 1:0.24014258 2:-2.9931875 
-0.01 1:0.30149805 2:-3.2504375 
-0.009785040830092292 1:0.20792578 2:-2.2953125 
-4.051165618945291e-05 1:0.13074219 2:-1.6263125 
-0.009718623378449536 1:0.28785156 2:-4.107875 
-0.0001129549798836281 1:0.1929668 2:-3.8806875 
-0.009682540397079475 1:0.31866406 2:-3.081875 
-0.0001774968924338461 1:0.39345312 2:-2.227625 
-0.007854228324803765 1:0.29270117 2:-3.2854375 
-0.006879266358586368 1:0.17282227 2:-3.03875 
-3.4895890096321e-07 1:0.19053711 2:-0.814 
-0.01 1:0.24038672 2:-3.35325 
-0.00304312127025459 1:0.2234082 2:-2.465375 
-0.009601872607135978 1:0.31611523 2:-3.318625 
-0.01 1:0.13867773 2:-2.1584375 
-0.01 1:0.2980332 2:-4.735125 
-0.00581271927925508 1:0.26169922 2:-2.8788125 
-0.01 1:0.23298633 2:-2.002375 
-0.01 1:0.22383594 2:-2.1114375 
-0.01 1:0.31775 2:-3.28175 
-3.628230446040136e-05 1:0.32251953 2:-3.13 
-0.01 1:0.29344141 2:-5.347125 
-0.002542707129876712 1:0.24242383 2:-3.8374375 
-0.009600366924076216 1:0.33624805 2:-2.221875 
-0.004535762601732578 1:0.10011719 2:-1.7415625 
-0.01 1:0.2029668 2:-3.2101875 
-0.00954265188298018 1:0.29919727 2:-3.645375 
-0.01 1:0.24741992 2:-3.6719375 
-1.999244634673897e-05 1:0.20066016 2:-0.89125 
-0.002167210731230548 1:0.19016016 2:-2.035125 
-0.01 1:0.34317578 2:-3.28275 
-0.009924051181948397 1:0.35558789 2:-3.6624375 
-0.009934313359334724 1:0.35155469 2:-4.9226875 
-0.001508508059150014 1:0.23377734 2:-4.336375 
-0.001300358435352485 1:0.11248828 2:-0.94625 
-0.01 1:0.17200195 2:-1.5355625 
-7.665289145643887e-05 1:0.40533789 2:-6.4565 
-0.0002492873150654921 1:0.46744336 2:-3.1958125 
-0.001640245099777079 1:0.18727148 2:-2.3613125 
-0.009632609180451172 1:0.18567383 2:-3.1919375 
-1.734723475976807e-18 1:0.20078516 2:-3.2855 
-6.625063950998118e-07 1:0.15559375 2:-1.099625 
-0.001377287906007134 1:0.094105469 2:-1.25525 
-0.009999427828984083 1:0.26945117 2:-2.346375 
-0.01 1:0.15299414 2:-3.1221875 
-0.009186303823277177 1:0.22943359 2:-3.84 
-0.005129552493898456 1:0.20499219 2:-4.49775 
-0.01 1:0.34233203 2:-3.7615 
-0.009998809749074297 1:0.31602344 2:-4.9779375 
-0.01 1:0.28319336 2:-3.9333125 
-0.01 1:0.29525195 2:-4.3768125 
-0.002376057787395315 1:0.35856055 2:-4.7313125 
-0.01 1:0.29736914 2:-3.4948125 
-0.0001461217791857111 1:0.38066602 2:-7.1104375 
-0.0009565500870540661 1:0.53860547 2:-3.504 
-0.01 1:0.28378711 2:-2.2425 
-0.01 1:0.19692188 2:-3.39575 
-0.009632926773641007 1:0.2959082 2:-2.391625 
-0.004730944884009471 1:0.33640039 2:-2.6640625 
-0.001059558663415007 1:0.27767969 2:-2.165375 
-0.003396687482635892 1:0.30784375 2:-3.0463125 
-0.01 1:0.38376562 2:-3.8575625 
-0.01 1:0.17297461 2:-3.49175 
-0.0001274700295346864 1:0.32173047 2:-4.30175 
-0.00930432273737216 1:0.33625781 2:-1.9894375 
-0.009990327693685972 1:0.3295625 2:-2.4216875 
-0.00841416108035422 1:0.15999805 2:-3.0535 
-0.01 1:0.30499609 2:-2.81075 
-0.008359754900222923 1:0.18969141 2:-2.3571875 
-0.00120141778980823 1:0.16129102 2:-2.2840625 
-0.01 1:0.3222207 2:-2.497375 
-0.01 1:0.27315234 2:-2.730375 
-0.01 1:0.17047266 2:-2.255125 
-0.006428490788945453 1:0.33769336 2:-4.283375 
-0.01 1:0.25205078 2:-2.93175 
-0.01 1:0.2591543 2:-1.780875 
-1.557906224845405e-05 1:0.24311523 2:-2.8549375 
-0.00781126757864325 1:0.32707617 2:-5.3795 
-0.01 1:0.31063477 2:-3.77025 
-0.008873510636139434 1:0.30292383 2:-2.5051875 
-0.0007325315641673185 1:0.42413672 2:-4.6000625 
-0.004916605201077706 1:0.42115039 2:-5.187125 
-0.01 1:0.29560352 2:-3.0410625 
-2.701602948051123e-05 1:0.353 2:-2.7285 
-0.01 1:0.27342773 2:-2.5523125 
-0.008611172906462881 1:0.24593945 2:-2.1311875 
-0.01 1:0.24601367 2:-2.191 
-0.01 1:0.24747852 2:-2.792 
-0.01 1:0.33359375 2:-4.6084375 
-0.009190205829381591 1:0.37238281 2:-5.6673125 
-0.001733655388946887 1:0.22475195 2:-0.9225625 
-0.01 1:0.33055078 2:-3.4485 
-0.0005884810132074757 1:0.14078516 2:-2.9080625 
-0.01 1:0.21495703 2:-1.86225 
-0.01 1:0.22565039 2:-2.6808125 
-0.01 1:0.27693164 2:-3.3294375 
-0.01 1:0.30196484 2:-2.5315 
-0.009319804415353333 1:0.22852344 2:-2.6631875 
-0.009684433270509428 1:0.36295508 2:-4.2379375 
-0.00919799672386057 1:0.20729687 2:-2.8753125 
-0.01 1:0.25391211 2:-2.442625 
-0.0003733743009891014 1:0.41484961 2:-3.875875 
-0.001219270779567339 1:0.39793555 2:-2.6754375 
-0.009999301887747128 1:0.16313281 2:-2.268625 
-0.008799665393599051 1:0.31473047 2:-4.4974375 
-0.0002317103438270785 1:0.22916211 2:-3.99775 
-0.009308377202445749 1:0.25251563 2:-4.2004375 
-0.008815963376058483 1:0.3485918 2:-4.0465625 
-0.008505690213157811 1:0.35138672 2:-6.545875 
-0.001060898530505681 1:0.3462832 2:-4.65725 
-0.0008562666018251126 1:0.41430469 2:-6.158625 
-0.01 1:0.23243945 2:-3.1105625 
-0.009609156665412151 1:0.38029492 2:-2.6636875 
-0.01 1:0.21748633 2:-2.4785 
-0.01 1:0.34100781 2:-3.860125 
-0.008105396926862608 1:0.2256875 2:-3.2185625 
-1.734723475976807e-18 1:0.26811719 2:-3.05975 
-0.001749926844203021 1:0.18468164 2:-3.602 
-0.01 1:0.21860547 2:-3.1045625 
-0.01 1:0.29859766 2:-3.285875 
-0.00995360328081748 1:0.39208203 2:-3.828125 
-0.01 1:0.18543555 2:-3.180375 
-0.001260017454828562 1:0.32270898 2:-4.6103125 
-0.002517789212352115 1:0.41963086 2:-2.7916875 
-0.007448922847672919 1:0.29157422 2:-3.5221875 
-0.003638643926131899 1:0.65594141 2:-2.2291875 
-0.01 1:0.31175195 2:-2.6984375 
-0.0008040126570374643 1:0.31384961 2:-5.691875 
-0.003307898260824635 1:0.40097656 2:-4.777375 
-0.01 1:0.32357812 2:-3.277 
-0.009809636780290235 1:0.13291602 2:-2.10625 
-0.01 1:0.22956055 2:-3.8821875 
-0.009891378332435809 1:0.43250195 2:-4.395375 
-0.01 1:0.27411523 2:-3.071875 
-8.520766649869188e-05 1:0.29741211 2:-2.8059375 
-0.009079382782215137 1:0.28708789 2:-2.5873125 
-0.01 1:0.25876172 2:-4.130375 
-0.00165067916666715 1:0.10730469 2:-2.29425 
-4.784477949816065e-06 1:0.21747852 2:-0.8331875 
-0.009996198918946719 1:0.31275195 2:-2.2413125 
-0.007431473423439049 1:0.1780957 2:-3.2313125 
-0.01 1:0.25545703 2:-2.2199375 
-0.01 1:0.33723437 2:-1.4580625 
-0.007501068934562755 1:0.37527344 2:-4.52 
-0.0005248511698004913 1:0.27646094 2:-4.252875 
-0.01 1:0.23818945 2:-4.0943125 
-2.010324874471598e-06 1:0.14892383 2:-0.8833125 
-0.0002402265318685975 1:0.10053125 2:-1.1860625 
-0.01 1:0.2698418 2:-2.0849375 
-0.0002492339560383615 1:0.41219531 2:-7.08375 
-0.01 1:0.25077539 2:-1.1349375 
-0.01 1:0.2899082 2:-4.8065 
-0.01 1:0.2909043 2:-5.123375 
-0.01 1:0.36931641 2:-4.372125 
-0.00676383123610217 1:0.20934961 2:-3.377625 
-0.00740701585993339 1:0.4081543 2:-3.5719375 
-0.007117310713391873 1:0.26439062 2:-3.920625 
-0.01 1:0.30863867 2:-3.7415625 
-4.542234138767574e-06 1:0.10358594 2:-0.9358125 
-0.01 1:0.30339062 2:-3.2913125 
-0.01 1:0.25830664 2:-4.3925625 
-0.01 1:0.26745508 2:-3.3273125 
-0.003850281293175818 1:0.20652539 2:-3.2526875 
-0.007457292870123284 1:0.22879688 2:-3.8315 
-0.01 1:0.371 2:-3.200125 
-0.01 1:0.25449219 2:-2.45125 
-0.0004578171828168406 1:0.28398047 2:-4.0013125 
-0.0002548059237797033 1:0.25672656 2:-1.856 
-0.009391008755901015 1:0.30117187 2:-4.8214375 
-0.004776799640582508 1:0.22990234 2:-4.13075 
-0.00688694411245939 1:0.52552539 2:-3.46175 
-0.01 1:0.27933008 2:-2.861125 
-0.01 1:0.25565625 2:-1.4544375 
-0.01 1:0.40971094 2:-4.368375 
-0.01 1:0.22255859 2:-2.02525 
-0.0009762931134663379 1:0.31239258 2:-3.335375 
-2.223484542899442e-05 1:0.40448242 2:-3.771 
-0.01 1:0.35457227 2:-3.133 
-0.00347433074950969 1:0.2788125 2:-4.1191875 
-0.01 1:0.29856836 2:-1.3805625 
-0.002985021613702026 1:0.35795508 2:-2.40525 
-0.01 1:0.41668164 2:-5.924875 
-0.01 1:0.25274414 2:-1.9728125 
-0.005520062033868097 1:0.2563418 2:-2.9838125 
-0.009694824241812727 1:0.19991992 2:-3.5648125 
-0.009992043151796026 1:0.34212109 2:-3.7601875 
-0.01 1:0.29614063 2:-3.1636875 
-0.008430322561900284 1:0.27866992 2:-3.1021875 
-0.001266373785639068 1:0.20087109 2:-0.9624375 
-0.01 1:0.19886328 2:-2.5488125 
-0.01 1:0.2208125 2:-2.5071875 
-0.01 1:0.28972266 2:-3.752625 
-0.009923515667411937 1:0.28090625 2:-1.948125 
-0.01 1:0.31465625 2:-3.7899375 
-0.01 1:0.39512695 2:-6.255875 
-1.715818043905478e-05 1:0.35478711 2:-6.158125 
-0.01 1:0.22727734 2:-3.095375 
-0.01 1:0.20256055 2:-1.8050625 
-0.01 1:0.20133203 2:-3.4996875 
-0.01 1:0.32941016 2:-4.59175 
-0.002106213777823631 1:0.26508984 2:-4.06 
-0.01 1:0.22986133 2:-2.7025625 
-0.00964519814667714 1:0.17116602 2:-2.7844375 
-0.0007537071559532668 1:0.15276953 2:-0.793625 
-0.0004193284685522284 1:0.10953125 2:-1.2106875 
-7.644151130461888e-06 1:0.16974609 2:-0.8895625 
-0.009261188699389283 1:0.37243359 2:-3.5903125 
-0.01 1:0.28279492 2:-1.9401875 
-0.0009008803248108721 1:0.13451758 2:-0.776 
-0.00368674049787107 1:0.27999414 2:-2.9005 
-0.01 1:0.19261133 2:-1.907375 
-0.001230782200282244 1:0.44980664 2:-3.9481875 
-0.0001913160802078127 1:0.27678516 2:-4.6961875 
-0.01 1:0.4081582 2:-2.5755 
-0.01 1:0.24077344 2:-3.8563125 
-0.0005428438755392087 1:0.4871875 2:-3.887125 
-0.01 1:0.19270117 2:-2.1895 
-0.0006396049428823307 1:0.17999414 2:-0.934875 
-0.007601766439093731 1:0.28879492 2:-3.6378125 
-0.01 1:0.17999219 2:-3.5201875 
-5.155942418139045e-08 1:0.24884961 2:-0.97475 
-0.01 1:0.21092969 2:-3.133125 
-1.734723475976807e-18 1:0.21583203 2:-3.4614375 
-0.001308936481207666 1:0.25072656 2:-4.601875 
-0.01 1:0.32610547 2:-3.250875 
-0.01 1:0.16495703 2:-2.8470625 
-0.006049395014692606 1:0.16884961 2:-3.4281875 
-6.405673624390574e-05 1:0.15929102 2:-3.25825 
-0.01 1:0.23957422 2:-3.8883125 
-0.01 1:0.38566406 2:-5.403625 
-0.0004079547822714313 1:0.16872461 2:-2.8725625 
-0.01 1:0.2184043 2:-3.258125 
-0.0001962638982705744 1:0.26692383 2:-3.2095 
-0.01 1:0.25782422 2:-4.0645625 
-0.003038809183017554 1:0.20250391 2:-3.0280625 
-0.01 1:0.45036328 2:-3.8025 
-0.01 1:0.3624082 2:-4.4905625 
-0.01 1:0.23607031 2:-2.3098125 
-0.01 1:0.41818359 2:-4.63875 
-0.009599020622680265 1:0.43891406 2:-2.859 
-0.01 1:0.3807207 2:-4.4460625 
-0.01 1:0.32372266 2:-4.3731875 
-8.296979874944694e-05 1:0.26589258 2:-4.75925 
-0.01 1:0.33193359 2:-3.9718125 
-0.0001424080138629948 1:0.43002148 2:-2.2696875 
-0.01 1:0.18241406 2:-1.7259375 
-0.004437027389209189 1:0.2882832 2:-4.770875 
-0.01 1:0.42445703 2:-4.7930625 
-0.01 1:0.21626563 2:-3.61525 
-0.001933788093748615 1:0.29819141 2:-3.56975 
-0.0008811589846037597 1:0.19192969 2:-3.6740625 
-0.01 1:0.30768945 2:-2.5954375 
-0.0003117063266986636 1:0.29744727 2:-5.4004375 
-0.003172650988392105 1:0.30871875 2:-4.3361875 
-0.01 1:0.22320313 2:-2.806375 
-0.002167192322648189 1:0.24781445 2:-4.7665625 
-0.002259927968485068 1:0.2720625 2:-5.821875 
-0.01 1:0.23871094 2:-3.58175 
-0.009928928713175604 1:0.37298047 2:-3.0148125 
-0.01 1:0.38608203 2:-5.83775 
-0.007256008572029077 1:0.17764258 2:-3.615625 
-9.648432308866383e-06 1:0.46813867 2:-1.7313125 
-0.01 1:0.26663086 2:-3.441375 
-0.008333336577246659 1:0.37616602 2:-4.028 
-0.01 1:0.31567578 2:-5.128625 
-0.01 1:0.17952539 2:-2.6530625 
-0.002567233939452934 1:0.25164063 2:-3.43575 
-0.01 1:0.2812207 2:-2.873125 
-0.01 1:0.24451562 2:-2.5500625 
-0.009926493756206127 1:0.19193359 2:-1.929375 
-0.009804713641849427 1:0.29558984 2:-2.858 
-0.009963138712905918 1:0.30986328 2:-2.678625 
-0.001865087281887842 1:0.20827734 2:-3.6744375 
-0.01 1:0.22663281 2:-4.6451875 
-0.004285140773064923 1:0.2190332 2:-3.64075 
-0.0003276868517448879 1:0.33359961 2:-2.69725 
-0.01 1:0.28352734 2:-3.212875 
-0.006468453995259982 1:0.30418555 2:-2.98925 
-0.009537331531758807 1:0.26330664 2:-1.4164375 
-0.01 1:0.20331055 2:-3.11325 
-2.931038564369974e-05 1:0.2493457 2:-4.6851875 
-0.007353870165177591 1:0.27169336 2:-5.148125 
-0.002225159302319875 1:0.25238281 2:-3.4760625 
-0.01 1:0.32075781 2:-5.06075 
-3.068361616861344e-05 1:0.44216406 2:-4.5275 
-0.001228898279289101 1:0.41519336 2:-4.189625 
-0.01 1:0.34103711 2:-3.227875 
-0.003614637194738123 1:0.16270117 2:-3.36225 
-0.01 1:0.19823438 2:-3.312625 
-0.00977098685035249 1:0.22388477 2:-2.2773125 
-0.01 1:0.34167578 2:-2.6451875 
-3.191325497878902e-06 1:0.20165625 2:-0.8826875 
-0.009288168535315769 1:0.26469922 2:-4.0971875 
-0.006768477212234709 1:0.38060742 2:-4.1420625 
-0.007395311000846124 1:0.27453906 2:-4.14125 
-0.0001012400514451825 1:0.35816797 2:-1.8958125 
-0.01 1:0.19511328 2:-3.0749375 
-1.734723475976807e-18 1:0.29849609 2:-3.9649375 
-0.01 1:0.30803125 2:-3.0019375 
-0.001944196273860837 1:0.14554883 2:-2.5863125 
-0.0004275575071551675 1:0.16046484 2:-0.79175 
-0.002571547775409661 1:0.18467578 2:-2.040125 
-0.008722446403057332 1:0.21073242 2:-3.4711875 
-0.009742543510592906 1:0.26073828 2:-4.4661875 
-0.008852634263918101 1:0.34141797 2:-2.0791875 
-0.01 1:0.1425293 2:-2.8435 
-0.0009640521327043077 1:0.29078711 2:-2.114 
-0.005513575963096641 1:0.27028711 2:-2.9045 
-0.01 1:0.23367578 2:-2.1321875 
-3.877745368847577e-06 1:0.092449219 2:-1.3479375 
-0.001725159932314681 1:0.23607227 2:-3.982375 
-0.0001453596520583419 1:0.11262109 2:-0.8276875 
-5.042954751287299e-05 1:0.27893359 2:-4.1188125 
-0.01 1:0.20761914 2:-1.4529375 
-0.0004711460393846171 1:0.33739062 2:-3.35425 
-0.009997778424090649 1:0.26228125 2:-1.668 
-0.01 1:0.32758203 2:-4.008125 
-0.0003191235822071529 1:0.54844922 2:-2.60875 
-0.005532887195618746 1:0.28028516 2:-4.858875 
-0.01 1:0.19701367 2:-2.13925 
-0.00500162971081056 1:0.32547656 2:-3.5169375 
-0.0002453776187873335 1:0.14845312 2:-2.919125 
-0.01 1:0.33317188 2:-4.68725 
-0.001380100448629291 1:0.46247266 2:-6.5006875 
-0.009643119840855778 1:0.49461523 2:-4.0245625 
-0.01 1:0.25320117 2:-3.239875 
-0.009813058086586439 1:0.16792383 2:-3.11075 
-0.01 1:0.29525 2:-4.57775 
-0.009920654634980595 1:0.2320293 2:-1.118875 
-0.01 1:0.24683398 2:-3.15875 
-0.009175148312238493 1:0.45806641 2:-2.8064375 
-0.008171020893357443 1:0.21323438 2:-0.878375 
-0.000114540614866054 1:0.19478711 2:-3.9204375 
-0.01 1:0.38851953 2:-5.6038125 
-0.0004486303948151423 1:0.2874082 2:-4.2813125 
-0.0001895589467224267 1:0.20406445 2:-1.2705625 
-0.007850869072279758 1:0.28838281 2:-3.5944375 
-0.002826424192116758 1:0.33039063 2:-4.84375 
-0.0006959702353761864 1:0.19984375 2:-4.152625 
-0.006452528426896784 1:0.41826953 2:-5.916375 
-0.01 1:0.41155273 2:-6.8126875 
-1.053561680675015e-07 1:0.12955469 2:-1.1235625 
-0.009662785868983151 1:0.31787891 2:-2.8479375 
-0.01 1:0.32580078 2:-5.342 
-0.001335287572363034 1:0.53393555 2:-3.7854375 
-0.003485060691547461 1:0.23928711 2:-4.124 
-0.01 1:0.30931641 2:-2.750125 
-0.01 1:0.47564063 2:-3.4048125 
-0.01 1:0.1924707 2:-2.783375 
-0.009593720933638457 1:0.25284766 2:-1.5586875 
-4.782385580703635e-05 1:0.12036133 2:-1.40125 
-0.01 1:0.28432422 2:-3.0955625 
-0.006034041176518878 1:0.64953711 2:-2.5906875 
-0.005685958229095793 1:0.34611328 2:-1.1154375 
-0.01 1:0.20885547 2:-2.3333125 
-0.0006916227975542501 1:0.26412695 2:-4.2101875 
-0.01 1:0.20068945 2:-2.8734375 
-0.01 1:0.21907031 2:-3.1823125 
-0.01 1:0.29850977 2:-5.8499375 
-0.01 1:0.17560742 2:-3.198875 
-0.0002988738631055576 1:0.30172266 2:-3.0673125 
-1.001980121235414e-07 1:0.14380469 2:-0.87225 
-0.001538391111636051 1:0.20620898 2:-3.808125 
-6.471305508261966e-05 1:0.16305664 2:-0.8150625 
-0.01 1:0.25799414 2:-3.7411875 
-2.695110100448997e-05 1:0.083269531 2:-1.9089375 
-0.001115123713760894 1:0.16924805 2:-2.906375 
-0.002259744993328308 1:0.077263672 2:-1.0995 
-0.01 1:0.2594668 2:-4.8190625 
-0.009897732950527868 1:0.20646875 2:-2.1166875 
-0.0001206386975369303 1:0.13369531 2:-2.6811875 
-0.01 1:0.25669336 2:-4.6960625 
-0.001869797774254981 1:0.20492383 2:-3.8988125 
-0.002208605326962236 1:0.17616797 2:-3.5999375 
-0.0002610074343568693 1:0.14083398 2:-3.0911875 
-0.01 1:0.21239258 2:-2.7041875 
-0.003786873464177215 1:0.34402344 2:-5.874 
-0.001270109952475226 1:0.21741797 2:-3.3318125 
-0.01 1:0.26228711 2:-4.840375 
-0.01 1:0.25462695 2:-3.4156875 
-0.009876323280346365 1:0.21823438 2:-2.610625 
-0.000694103201972973 1:0.28627148 2:-1.2314375 
-0.01 1:0.24904492 2:-3.73525 
-0.01 1:0.33039648 2:-5.4395 
-0.007994987769597218 1:0.29635937 2:-5.16975 
-1.152197307349884e-06 1:0.17619141 2:-1.071875 
-0.001198779030283674 1:0.34343359 2:-4.500875 
-0.01 1:0.29425977 2:-3.531625 
-0.01 1:0.31121484 2:-5.3504375 
-0.01 1:0.18891602 2:-2.479875 
-0.01 1:0.24032227 2:-2.5743125 
-0.0009028644682561975 1:0.17188867 2:-0.9570625 
-0.009981874332559025 1:0.40568359 2:-4.743125 
-0.01 1:0.21264844 2:-2.9796875 
-0.0001805799255748161 1:0.34079687 2:-4.7308125 
-0.01 1:0.27839453 2:-2.256625 
-0.006393433340482149 1:0.15662109 2:-3.363625 
-0.01 1:0.37045117 2:-4.9888125 
-0.01 1:0.20986914 2:-3.282625 
-0.0004125422255545318 1:0.33169922 2:-2.062625 
-0.01 1:0.19264258 2:-2.876 
-0.01 1:0.22297266 2:-2.9069375 
-0.01 1:0.33393945 2:-5.0185 
-0.01 1:0.29553906 2:-3.6444375 
-0.003636332816910596 1:0.26292969 2:-2.64375 
-0.005970666172007776 1:0.44346484 2:-2.4981875 
-0.01 1:0.38406055 2:-4.01 
-1.734723475976807e-18 1:0.19147852 2:-2.9933125 
-0.009826915147178209 1:0.32245703 2:-3.907375 
-0.01 1:0.31895703 2:-3.3794375 
-0.009997775368364659 1:0.22771875 2:-1.64375 
-0.0025225999825739 1:0.1194082 2:-2.294 
-0.01 1:0.27932617 2:-4.1611875 
-0.01 1:0.40238867 2:-4.4288125 
-0.01 1:0.25978906 2:-1.63275 
-7.283675277341471e-07 1:0.19561914 2:-0.8390625 
-0.000307247217601315 1:0.21372266 2:-3.2156875 
-0.008633617725628167 1:0.2073418 2:-3.732875 
-0.005022841875872824 1:0.21955664 2:-4.0781875 
-0.01 1:0.26205273 2:-4.2426875 
-0.01 1:0.17538867 2:-4.007875 
-0.01 1:0.33814844 2:-3.5335 
-0.01 1:0.44792773 2:-5.903 
-0.009998106423222209 1:0.17069531 2:-1.9250625 
-0.01 1:0.23025 2:-4.340625 
-0.001190139819762231 1:0.13572852 2:-2.5335 
-0.01 1:0.31925977 2:-1.5941875 
-0.009599033962731761 1:0.35754883 2:-3.372625 
-0.01 1:0.22406641 2:-3.3175 
-0.01 1:0.23632617 2:-4.5579375 
-0.000276587591594788 1:0.22061328 2:-3.57275 
-6.665994554629887e-06 1:0.51403125 2:-6.2425 
-0.008415195588748425 1:0.27617578 2:-2.6374375 
-0.01 1:0.18489648 2:-2.2105625 
-0.0003525216322428388 1:0.12463281 2:-2.6011875 
-0.01 1:0.26166016 2:-2.042 
-0.006850163699709096 1:0.28428125 2:-3.5425 
-0.0003059335943572506 1:0.3309082 2:-3.58025 
-0.01 1:0.29289063 2:-5.652375 
-0.005803368377176013 1:0.26501562 2:-3.754625 
-0.00998217407755774 1:0.22468359 2:-4.2766875 
-0.009521280557968397 1:0.34345898 2:-3.634875 
-0.01 1:0.23668945 2:-3.4695625 
-0.01 1:0.26679102 2:-4.0938125 
-0.01 1:0.18390039 2:-3.3836875 
-0.0002432446769005686 1:0.10986133 2:-1.25375 
-0.006685576270860397 1:0.15877148 2:-2.7178125 
-0.002631901543963711 1:0.29992578 2:-5.9721875 
-0.005744863783956101 1:0.18165039 2:-2.6295 
-0.00999438351574207 1:0.26113086 2:-1.6146875 
-0.009793275364022587 1:0.32640039 2:-3.9146875 
-0.01 1:0.31301172 2:-2.7151875 
-0.009981872033179046 1:0.16494336 2:-2.7305625 
-0.003170349332972231 1:0.2641543 2:-5.26025 
-0.003902169999203928 1:0.25073828 2:-3.981875 
-0.01 1:0.26388086 2:-2.4286875 
-0.01 1:0.19116797 2:-3.537 
-0.0001877471381862531 1:0.22655664 2:-4.522125 
-0.01 1:0.26534961 2:-4.584875 
-0.0006255496392629928 1:0.23373633 2:-3.3294375 
-0.01 1:0.26879688 2:-3.7056875 
-0.01 1:0.19735547 2:-3.3311875 
-0.01 1:0.38800586 2:-4.0814375 
-1.165377055205243e-05 1:0.54441992 2:-4.3748125 
-0.01 1:0.19360547 2:-2.5951875 
-7.496497895599462e-05 1:0.45663086 2:-6.1100625 
-0.002940881679982446 1:0.24031641 2:-4.144875 
-0.01 1:0.2439668 2:-3.3909375 
-0.01 1:0.21389453 2:-2.7635625 
-0.006373346626363518 1:0.25584961 2:-3.3073125 
-0.008048815951442216 1:0.21626758 2:-3.0046875 
-0.01 1:0.18033008 2:-2.7246875 
-0.003311095019599502 1:0.17987109 2:-2.704125 
-0.008831810068711764 1:0.44498437 2:-3.3908125 
-0.01 1:0.27758789 2:-5.3843125 
-0.01 1:0.29558789 2:-5.2064375 
-0.009939080749679481 1:0.26486133 2:-3.8655625 
-0.01 1:0.23749609 2:-3.3665625 
-0.01 1:0.32280273 2:-2.0461875 
-0.01 1:0.25026758 2:-2.719625 
-0.01 1:0.22781055 2:-4.3150625 
-0.001597550500343011 1:0.17325781 2:-3.0504375 
-0.009999413693276919 1:0.34261133 2:-3.0275 
-0.01 1:0.31555273 2:-3.88875 
-0.003610870177974325 1:0.31826172 2:-5.8076875 
-0.01 1:0.19564844 2:-3.46 
-0.009604268023779909 1:0.21661914 2:-2.7246875 
-2.45306476879508e-05 1:0.32874023 2:-3.8516875 
-0.0004013725432107001 1:0.1095 2:-2.187375 
-0.01 1:0.28764844 2:-2.8450625 
-0.002024558678761135 1:0.26124219 2:-4.48975 
-0.01 1:0.19799414 2:-3.060125 
-0.006603312517364103 1:0.2531543 2:-3.0548125 
-0.01 1:0.30327344 2:-3.6006875 
-0.009859865439856239 1:0.33467969 2:-3.48525 
-0.01 1:0.25717773 2:-2.1083125 
-0.01 1:0.30219531 2:-2.524375 
-0.01 1:0.23557227 2:-1.9678125 
-0.003164450788678965 1:0.23031836 2:-4.3780625 
-0.01 1:0.20242773 2:-2.74125 
-0.002046875272197434 1:0.19851367 2:-2.452625 
-0.003352789367122943 1:0.16150391 2:-2.4311875 
-0.01 1:0.21822266 2:-3.4904375 
-0.009849617629971046 1:0.34413281 2:-2.960375 
-0.01 1:0.19669336 2:-2.1111875 
-0.001218674443911115 1:0.2154375 2:-2.541125 
-0.0005999640100138055 1:0.3675957 2:-5.8905625 
-0.001522343727857048 1:0.59253906 2:-2.77375 
-6.835499382468855e-05 1:0.43018359 2:-4.062625 
-0.009997579305739459 1:0.21253711 2:-1.875875 
-0.01 1:0.20956836 2:-2.620875 
-0.01 1:0.26961328 2:-5.065375 
-0.009995531900600891 1:0.30563867 2:-1.884125 
-0.01 1:0.31420117 2:-4.928125 
-0.0001466959887385097 1:0.29588281 2:-5.0153125 
-0.002604845473015932 1:0.22947852 2:-1.157625 
-0.01 1:0.1716875 2:-2.1968125 
-0.009999999999999998 1:0.15217187 2:-2.60975 
-0.009964083641421593 1:0.18863477 2:-2.969625 
-1.664233563732404e-05 1:0.52775391 2:-2.3980625 
-0.01 1:0.24451758 2:-2.7610625 
-0.01 1:0.21947852 2:-3.2145625 
-0.007943728477107666 1:0.36345508 2:-3.368625 
-0.0005287587059537458 1:0.31237305 2:-1.243125 
-0.003640822609558648 1:0.39553906 2:-4.077875 
-0.009867523095446896 1:0.32638281 2:-2.101875 
-0.01 1:0.22866016 2:-3.083125 
-0.0005464484123015986 1:0.091326172 2:-2.0931875 
-0.01 1:0.16991992 2:-2.7774375 
-0.01 1:0.25696484 2:-2.8865625 
-0.009719782929221149 1:0.34985352 2:-2.4348125 
-0.01 1:0.30731445 2:-2.7576875 
-0.006975263535490757 1:0.29012891 2:-2.4004375 
-0.01 1:0.23976953 2:-3.0374375 
-0.01 1:0.25304492 2:-2.577 
-0.007599183576406822 1:0.34035352 2:-2.68275 
-0.006903394258421016 1:0.35717578 2:-3.3101875 
-0.01 1:0.2359043 2:-3.896125 
-0.01 1:0.23966797 2:-3.09075 
-0.01 1:0.39812109 2:-4.224375 
-0.01 1:0.19176953 2:-3.300375 
-0.004861882047302936 1:0.27809375 2:-4.651125 
-0.009708176092917976 1:0.40748633 2:-4.45825 
-0.01 1:0.4214043 2:-5.82125 
-0.0004815081225998495 1:0.1371543 2:-3.1536875 
-0.01 1:0.24029297 2:-3.9731875 
-0.001857035663461193 1:0.20199219 2:-4.3338125 
-0.003511281141300683 1:0.085773437 2:-1.749625 
-0.0001072939956182251 1:0.19626367 2:-2.565125 
-0.009924125001271893 1:0.41820312 2:-4.4476875 
-0.01 1:0.3845 2:-6.7055 
-0.000777536544451499 1:0.19945117 2:-3.270625 
-0.01 1:0.27218164 2:-4.5251875 
-0.003573663189919529 1:0.4627793 2:-3.8699375 
-0.009999999999999998 1:0.17675195 2:-3.076 
-0.01 1:0.19900781 2:-2.9758125 
-0.009998342961149131 1:0.33593555 2:-1.454375 
-6.502443606591828e-08 1:0.16836328 2:-0.9831875 
-0.008507303146551855 1:0.35314648 2:-5.098125 
-0.005342378585467007 1:0.21640234 2:-3.2531875 
-0.01 1:0.17535547 2:-2.8948125 
-0.004372670068481394 1:0.24166016 2:-3.9934375 
-0.01 1:0.17841406 2:-3.1833125 
-0.005771472007716513 1:0.31257617 2:-5.3324375 
-0.00635652365482323 1:0.24137305 2:-3.8963125 
-2.988802715469788e-07 1:0.20705664 2:-0.99 
-0.01 1:0.26693555 2:-3.574375 
-0.00992314539572064 1:0.2469707 2:-3.532625 
-0.009482490780432316 1:0.25398438 2:-4.262 
-0.004485004019436494 1:0.38234766 2:-2.281625 
-0.002021955140549194 1:0.18352148 2:-2.7554375 
-0.0001725876687862774 1:0.32193359 2:-4.249 
-0.0004300253626457001 1:0.49887891 2:-3.0599375 
-0.01 1:0.20806445 2:-2.2381875 
-0.01 1:0.26847266 2:-2.5329375 
-0.008063461581807756 1:0.23867578 2:-2.756 
-8.456582530204761e-06 1:0.11476953 2:-0.8813125 
-0.0001174075346009615 1:0.39750977 2:-6.3005625 
-0.01 1:0.2893125 2:-4.126625 
-1.565833646097702e-06 1:0.086097656 2:-1.1035 
-0.01 1:0.29880859 2:-4.723125 
-0.008135337371037181 1:0.43258789 2:-3.1353125 
-5.337287478900295e-07 1:0.16215625 2:-0.8524375 
-0.008374069938252264 1:0.12336719 2:-2.2634375 
-0.01 1:0.25786328 2:-0.944125 
-0.009976034031719212 1:0.24727539 2:-4.8033125 
-0.00997847445339217 1:0.28121875 2:-5.2725 
-0.009380770063185452 1:0.27027148 2:-4.435875 
-0.002090757883979704 1:0.30577734 2:-2.7071875 
-0.01 1:0.434875 2:-4.560125 
-0.009880586692102292 1:0.35373047 2:-2.2044375 
-0.004293578568363437 1:0.14504883 2:-2.4418125 
-0.01 1:0.20203516 2:-1.9925 
-0.003019813121473802 1:0.38613477 2:-4.4948125 
-0.009995548260404403 1:0.30670117 2:-1.691 
-0.001337880430065514 1:0.32254492 2:-3.2290625 
-0.007116613137770744 1:0.14018359 2:-0.7805 
-0.001107443952026339 1:0.1077793 2:-2.3355 
-0.01 1:0.20291211 2:-3.866875 
-0.002899067997862778 1:0.23500977 2:-4.5056875 
-0.009623471254666886 1:0.28000586 2:-5.0475 
-5.869470065480434e-06 1:0.074298828 2:-1.0331875 
-0.000145208301099817 1:0.27041016 2:-4.537625 
-0.01 1:0.2641875 2:-4.3831875 
-0.01 1:0.18796484 2:-3.4426875 
-0.01 1:0.27587695 2:-3.5220625 
-0.01 1:0.23654492 2:-4.495125 
-0.0004163423213494369 1:0.36108594 2:-3.895375 
-0.004196631622823985 1:0.24048633 2:-3.747625 
-0.005259626533829475 1:0.1994082 2:-2.0345625 
-0.0009347232261515401 1:0.093445313 2:-1.990875 
-0.01 1:0.36598633 2:-2.9008125 
-7.078474101223279e-06 1:0.21480469 2:-0.8688125 
-0.00113694601617372 1:0.25908398 2:-4.4743125 
-4.252565449116517e-05 1:0.11324219 2:-0.802375 
-1.865607898562431e-06 1:0.16694141 2:-0.9258125 
-0.01 1:0.34011523 2:-4.4020625 
-0.0041694962019905 1:0.19501367 2:-2.6203125 
-0.01 1:0.24066016 2:-2.2091875 
-0.009997680018206839 1:0.25153516 2:-2.034125 
-0.01 1:0.24247852 2:-2.04975 
-0.0002425285305089361 1:0.50034766 2:-1.9210625 
-0.01 1:0.249 2:-3.5843125 
-0.01 1:0.47638086 2:-5.2835625 
-0.01 1:0.23308594 2:-1.8355 
-0.009779702163534493 1:0.16288086 2:-2.8126875 
-0.008122779425481197 1:0.27044922 2:-2.3269375 
-0.01 1:0.28905078 2:-3.00425 
-0.0005801904441355768 1:0.19323633 2:-3.479375 
-0.01 1:0.22826563 2:-3.2530625 
-0.009727094561984024 1:0.38314062 2:-2.5246875 
-0.01 1:0.25748828 2:-0.9090625 
-1.137774486526945e-05 1:0.1552168 2:-3.012125 
-7.118868561951441e-05 1:0.32331641 2:-2.8158125 
-0.01 1:0.23024805 2:-4.4745 
-0.01 1:0.34435742 2:-4.3355625 
-0.01 1:0.11754102 2:-2.3025625 
-0.006220004371346847 1:0.23947656 2:-3.9203125 
-6.815174089080795e-05 1:0.14276953 2:-3.45125 
-0.01 1:0.3448418 2:-4.1620625 
-0.0001829881316384221 1:0.21671484 2:-4.16775 
-0.00129113072836349 1:0.59392578 2:-2.6131875 
-0.0006427630772157151 1:0.26008984 2:-4.427875 
-0.002357872979012034 1:0.30280664 2:-4.5919375 
-0.001078882012050194 1:0.22532617 2:-3.8934375 
-0.004515678325429927 1:0.2628418 2:-2.9529375 
-0.001510151247726015 1:0.18744141 2:-4.0124375 
-0.009644990748144462 1:0.38274609 2:-3.323375 
-0.01 1:0.3290957 2:-2.6263125 
-6.492391794600231e-05 1:0.39325977 2:-3.343 
-0.007548602333863119 1:0.32971875 2:-3.6864375 
-0.01 1:0.33603906 2:-3.70375 
-0.00999853421147579 1:0.2912832 2:-3.3300625 
-0.009953917060216991 1:0.37595117 2:-6.845625 
-0.008940441336584993 1:0.30180859 2:-2.16275 
-0.009478361178899436 1:0.3277207 2:-3.7340625 
-0.002677212530563484 1:0.36602734 2:-1.5118125 
-0.01 1:0.24925391 2:-4.0321875 
-1.108095167982141e-05 1:0.12094922 2:-0.8600625 
-4.462264021440985e-05 1:0.13779102 2:-2.9471875 
-0.0009491419675914717 1:0.046820312 2:-0.9586875 
-0.01 1:0.25707813 2:-3.7184375 
-0.006388598432428953 1:0.067253906 2:-1.4940625 
-1.734723475976807e-18 1:0.30579492 2:-2.78075 
-0.001276831102875718 1:0.15436523 2:-0.9586875 
-0.01 1:0.30825586 2:-3.884125 
-0.01 1:0.28054102 2:-4.74375 
-0.009089381174221181 1:0.29929883 2:-4.5318125 
-0.00989968204303002 1:0.36050586 2:-5.13925 
-0.01 1:0.21903711 2:-2.3874375 
-0.00461538701029162 1:0.29311328 2:-4.3414375 
-0.01 1:0.25980859 2:-2.995 
-0.01 1:0.25639453 2:-2.3706875 
-0.009868000731410689 1:0.17897461 2:-3.3109375 
-0.009997125184278225 1:0.27055078 2:-1.3105 
-0.001465499091221313 1:0.19568164 2:-2.5778125 
-0.01 1:0.24608203 2:-2.3425625 
-0.002069012022170669 1:0.12105859 2:-2.527625 
-0.01 1:0.24474805 2:-3.388625 
-0.01 1:0.20381836 2:-2.5619375 
-0.009874965100671422 1:0.32654883 2:-4.3288125 
-0.0004100968357231575 1:0.15078711 2:-0.7690625 
-0.001285986980629903 1:0.50749414 2:-4.0415625 
-0.01 1:0.17244727 2:-3.071125 
-7.682737201407604e-06 1:0.13867969 2:-0.859 
-6.460866544080308e-07 1:0.1527168 2:-1.0211875 
-0.002017846458873019 1:0.29321875 2:-3.302 
-0.01 1:0.28005078 2:-4.63375 
-0.01 1:0.2700332 2:-3.06725 
-0.001177740942681051 1:0.33197852 2:-4.3599375 
-0.01 1:0.32152344 2:-4.0238125 
-0.01 1:0.28 2:-4.6884375 
-0.001299965719309322 1:0.14826172 2:-3.133125 
-0.0004207287950732233 1:0.28196289 2:-3.4839375 
-0.01 1:0.20046875 2:-2.5005 
-0.009930105547872565 1:0.23964258 2:-3.02975 
-0.0001082138409695879 1:0.46969531 2:-2.3004375 
-0.002174973506614193 1:0.27541992 2:-5.0645625 
-0.01 1:0.25701367 2:-2.2314375 
-0.008813848604318168 1:0.249375 2:-4.0724375 
-0.01 1:0.24075195 2:-4.7785625 
-0.01 1:0.24193164 2:-3.122625 
-0.01 1:0.20847656 2:-2.4965625 
-0.01 1:0.26878906 2:-2.6270625 
-0.009551369605184852 1:0.22920898 2:-4.2850625 
-0.004286790672406041 1:0.26645117 2:-3.9381875 
-0.01 1:0.21825195 2:-3.4581875 
-0.007099794812018586 1:0.21803711 2:-2.5533125 
-0.0001688401312139705 1:0.27432812 2:-1.215 
-0.01 1:0.23668555 2:-3.42625 
-0.01 1:0.26510352 2:-4.29625 
-0.002919213811656532 1:0.3515918 2:-1.2735625 
-0.009827120389978215 1:0.28163281 2:-3.179375 
-0.000271368209496613 1:0.14199219 2:-2.8046875 
-0.009800887218809933 1:0.29271875 2:-4.6921875 
-0.009888423245262954 1:0.29110156 2:-2.9788125 
-0.01 1:0.22067578 2:-3.08325 
-0.009996171193383039 1:0.26932422 2:-1.75025 
-0.01 1:0.21431445 2:-3.4475625 
-0.01 1:0.31682227 2:-3.2665 
-0.008855223534084125 1:0.37255273 2:-4.0279375 
-0.01 1:0.23399219 2:-2.62225 
-0.009761707716093299 1:0.37058984 2:-3.2365 
-0.001651692944032836 1:0.31735547 2:-3.8170625 
-0.006268670503443876 1:0.20760742 2:-3.0956875 
-0.01 1:0.26213867 2:-2.9094375 
-0.002264694745355284 1:0.2595918 2:-3.181375 
-0.0005599920522589805 1:0.41373437 2:-5.745875 
-0.01 1:0.30686914 2:-4.639625 
-0.007037513332134266 1:0.43007617 2:-2.785 
-0.01 1:0.22242773 2:-3.79525 
-0.008225877730344635 1:0.38089844 2:-3.7419375 
-0.002899586706277625 1:0.38552344 2:-4.6464375 
-0.0009863404490163812 1:0.5284082 2:-3.2651875 
-0.0005579036319219165 1:0.13896484 2:-2.837125 
-0.00843567421898673 1:0.40685938 2:-5.1049375 
-0.0005735821453262377 1:0.35732227 2:-6.6468125 
-0.005673206515872379 1:0.25339062 2:-4.637125 
-0.008500256451993256 1:0.27607813 2:-4.5745625 
-0.0005538873797331681 1:0.20012695 2:-3.5238125 
-0.009999999999999998 1:0.19591602 2:-3.3183125 
-0.0006221790239545166 1:0.20150977 2:-3.11175 
-0.01 1:0.2521875 2:-3.2321875 
-0.0004399486201311757 1:0.24242187 2:-2.8604375 
-0.01 1:0.21165039 2:-2.319875 
-0.0007387024859781627 1:0.15863672 2:-3.6760625 
-0.01 1:0.23383984 2:-4.118375 
-0.00983422613677175 1:0.33665234 2:-5.5881875 
-0.009634465381372602 1:0.40747852 2:-2.684 
-0.008662723871357962 1:0.34483398 2:-3.801125 
-0.005913945219290391 1:0.31139258 2:-3.1750625 
-0.01 1:0.31369727 2:-2.0728125 
-0.009849857517555198 1:0.21091211 2:-2.560125 
-0.01 1:0.32591797 2:-3.0913125 
-0.01 1:0.2566543 2:-2.5156875 
-0.01 1:0.28278906 2:-2.4069375 
-4.075775580533282e-05 1:0.25924219 2:-5.2435 
-0.01 1:0.39958398 2:-4.91325 
-0.01 1:0.27977539 2:-2.3631875 
-0.01 1:0.29069922 2:-5.8220625 
-0.006103359029677452 1:0.56148633 2:-3.396 
-0.008834237957250111 1:0.29617187 2:-4.460625 
-0.000208780770937469 1:0.2792832 2:-4.56025 
-0.009128832793685518 1:0.37252148 2:-3.554625 
-0.01 1:0.18317383 2:-2.6414375 
-0.01 1:0.27653906 2:-1.923375 
-4.861881701279492e-05 1:0.46163086 2:-3.4993125 
-0.001876693534340354 1:0.5193418 2:-3.74275 
-0.01 1:0.28097656 2:-4.3633125 
-0.002559424018204496 1:0.26807227 2:-5.3609375 
-0.01 1:0.22942383 2:-3.4251875 
-0.01 1:0.34450977 2:-3.534625 
-2.559459820324484e-06 1:0.26740625 2:-0.86625 
-0.000311847971939728 1:0.51713281 2:-3.2915625 
-0.009199081462907046 1:0.40333008 2:-3.0384375 
-0.01 1:0.36656836 2:-4.133375 
-0.01 1:0.22366797 2:-1.3763125 
-0.008585672477682127 1:0.35899219 2:-4.406625 
-0.0004424663559926374 1:0.39318359 2:-3.0641875 
-0.01 1:0.14630273 2:-2.197625 
-0.00694487169064338 1:0.24126758 2:-2.4735 
-0.009509689443811172 1:0.30999805 2:-3.1918125 
-0.01 1:0.32408008 2:-3.10675 
-0.009744336657759379 1:0.27822461 2:-1.836375 
-3.466794220286347e-05 1:0.434375 2:-2.9555625 
-0.00994906084607643 1:0.38016016 2:-4.81675 
-0.01 1:0.31038086 2:-3.6683125 
-0.0001507916390918592 1:0.54072852 2:-4.29325 
-0.00929003953952777 1:0.25279492 2:-3.1105 
-0.01 1:0.39370508 2:-2.9211875 
-0.0002028140140925041 1:0.59758984 2:-2.2580625 
-0.001971676225390486 1:0.2762207 2:-0.91625 
