svm_type c_svc
kernel_type polynomial
degree 2
gamma 1
coef0 1
nr_class 2
total_sv 1291
rho 0.941962
label 1 -1
nr_sv 542 749
SV
100 1:0.44066992 2:-4.3504375 
100 1:0.27822461 2:-4.0888125 
100 1:0.28741406 2:-4.3654375 
100 1:0.18921094 2:-3.328375 
100 1:0.34156641 2:-4.8388125 
100 1:0.28816211 2:-3.75325 
100 1:0.42295508 2:-4.58325 
100 1:0.35011133 2:-4.5961875 
100 1:0.30645703 2:-2.082 
100 1:0.33792773 2:-3.1846875 
100 1:0.41233789 2:-5.5705 
100 1:0.35138672 2:-4.4420625 
100 1:0.24904883 2:-4.0290625 
100 1:0.26214258 2:-4.100125 
100 1:0.27826172 2:-4.4676875 
100 1:0.33248828 2:-2.502 
100 1:0.36280664 2:-5.8456875 
100 1:0.35701172 2:-4.0114375 
100 1:0.33430859 2:-3.2810625 
100 1:0.29611523 2:-5.2068125 
100 1:0.32277539 2:-3.7033125 
100 1:0.33418555 2:-2.956375 
100 1:0.16690234 2:-2.8409375 
100 1:0.33725781 2:-3.869 
100 1:0.25451758 2:-1.7416875 
100 1:0.30048633 2:-3.50575 
100 1:0.24953906 2:-2.5758125 
100 1:0.2707207 2:-4.2679375 
100 1:0.37868359 2:-4.4215 
100 1:0.22776367 2:-2.785125 
100 1:0.33098047 2:-2.8483125 
100 1:0.39789844 2:-2.9333125 
100 1:0.31657031 2:-3.592375 
100 1:0.21885156 2:-1.7906875 
100 1:0.31800195 2:-2.7066875 
100 1:0.19188281 2:-2.0279375 
100 1:0.17126758 2:-2.6516875 
100 1:0.29497461 2:-2.2556875 
100 1:0.28387305 2:-3.2044375 
100 1:0.40943945 2:-2.8265625 
100 1:0.20573242 2:-2.702 
100 1:0.34373047 2:-3.911375 
100 1:0.24505859 2:-3.2475 
100 1:0.26678516 2:-2.513375 
100 1:0.25408203 2:-4.2065 
100 1:0.3456543 2:-3.2239375 
100 1:0.24648828 2:-3.09025 
100 1:0.19146289 2:-3.1794375 
100 1:0.32058789 2:-2.162375 
100 1:0.343625 2:-3.1510625 
100 1:0.30064063 2:-4.62675 
100 1:0.25929492 2:-3.3233125 
100 1:0.23530273 2:-1.1014375 
100 1:0.28984375 2:-4.7261875 
100 1:0.25291602 2:-4.2434375 
100 1:0.20922266 2:-2.4875625 
100 1:0.18249414 2:-3.0206875 
100 1:0.2452207 2:-4.069625 
100 1:0.47007031 2:-3.4156875 
100 1:0.25875391 2:-3.735125 
100 1:0.25331055 2:-5.259125 
100 1:0.33484375 2:-4.3180625 
100 1:0.19809375 2:-3.069 
100 1:0.23054297 2:-3.08525 
100 1:0.22968555 2:-4.1193125 
100 1:0.39870508 2:-6.2614375 
100 1:0.33263477 2:-5.3505 
100 1:0.25126563 2:-2.5884375 
100 1:0.28254102 2:-2.7315 
100 1:0.24461719 2:-3.759875 
100 1:0.30981836 2:-2.747 
100 1:0.25489844 2:-3.386625 
100 1:0.28346094 2:-1.1570625 
100 1:0.26345898 2:-4.1485 
100 1:0.28462109 2:-2.889125 
100 1:0.1962832 2:-2.790375 
100 1:0.16263086 2:-2.6108125 
100 1:0.17793555 2:-1.9318125 
100 1:0.28441602 2:-4.591875 
100 1:0.29831641 2:-1.8839375 
100 1:0.32322461 2:-4.9383125 
100 1:0.22491602 2:-2.3835 
100 1:0.29147852 2:-2.597125 
100 1:0.19753516 2:-3.424375 
100 1:0.27897461 2:-2.5580625 
100 1:0.43238867 2:-2.8535625 
100 1:0.32033984 2:-3.4545625 
100 1:0.27245117 2:-3.922625 
100 1:0.12591406 2:-1.9669375 
100 1:0.23814258 2:-3.4095 
100 1:0.3985957 2:-4.82175 
100 1:0.24329297 2:-3.091 
100 1:0.25313672 2:-2.7315 
100 1:0.27132227 2:-3.500875 
100 1:0.35445117 2:-2.0418125 
100 1:0.31777148 2:-5.3259375 
100 1:0.41664844 2:-5.8334375 
100 1:0.37456445 2:-3.8265 
100 1:0.29933008 2:-3.1620625 
100 1:0.17382031 2:-1.9191875 
100 1:0.16448242 2:-2.1161875 
100 1:0.37798242 2:-5.36075 
100 1:0.35523242 2:-5.1198125 
100 1:0.2519707 2:-2.6255625 
100 1:0.30011328 2:-3.26075 
100 1:0.2056543 2:-2.8788125 
100 1:0.2994707 2:-3.6604375 
100 1:0.28832227 2:-3.2866875 
100 1:0.12416602 2:-2.0903125 
100 1:0.11805469 2:-2.27 
100 1:0.17107227 2:-1.879375 
100 1:0.26833398 2:-4.8129375 
100 1:0.17469141 2:-2.1999375 
100 1:0.18063281 2:-1.7966875 
100 1:0.15491016 2:-3.04925 
100 1:0.23418945 2:-3.1060625 
100 1:0.34679102 2:-4.3859375 
100 1:0.18732031 2:-3.1871875 
100 1:0.24810742 2:-2.2230625 
100 1:0.20545117 2:-3.250625 
100 1:0.20155859 2:-2.3331875 
100 1:0.34156445 2:-3.5378125 
100 1:0.37650977 2:-3.31375 
100 1:0.35983789 2:-4.137 
100 1:0.18253516 2:-3.388375 
100 1:0.31178516 2:-2.6841875 
100 1:0.28626953 2:-2.63325 
100 1:0.3564082 2:-4.6351875 
100 1:0.29650781 2:-3.8868125 
100 1:0.31982812 2:-5.0585 
100 1:0.30227734 2:-2.2331875 
100 1:0.28037109 2:-1.59875 
100 1:0.21647656 2:-1.9361875 
100 1:0.24942188 2:-1.6803125 
100 1:0.25853125 2:-4.44175 
100 1:0.21929688 2:-1.9210625 
100 1:0.3401875 2:-1.4686875 
100 1:0.32116602 2:-1.6766875 
100 1:0.23394336 2:-2.904 
100 1:0.2692793 2:-4.3863125 
100 1:0.28656836 2:-5.2745 
100 1:0.34270508 2:-2.6396875 
100 1:0.22915234 2:-1.374375 
100 1:0.33480664 2:-2.5214375 
100 1:0.27562891 2:-3.6761875 
100 1:0.28976953 2:-3.163375 
100 1:0.34318555 2:-4.044125 
100 1:0.26531055 2:-4.804 
100 1:0.26812109 2:-3.9265625 
100 1:0.241125 2:-3.359 
100 1:0.35424609 2:-4.1588125 
100 1:0.1582793 2:-2.42875 
100 1:0.2905 2:-5.1194375 
100 1:0.20248633 2:-1.470125 
100 1:0.21135742 2:-2.489 
100 1:0.31603125 2:-3.776875 
100 1:0.23958398 2:-2.7159375 
100 1:0.34157617 2:-4.2260625 
100 1:0.36369141 2:-2.1930625 
100 1:0.32398242 2:-3.5039375 
100 1:0.20150586 2:-2.223875 
100 1:0.21023242 2:-3.081125 
100 1:0.38706445 2:-4.7500625 
100 1:0.25750977 2:-2.2086875 
100 1:0.3180957 2:-4.3368125 
100 1:0.31791016 2:-3.7708125 
100 1:0.48707422 2:-3.45225 
100 1:0.3085 2:-4.161875 
100 1:0.26771875 2:-2.972875 
100 1:0.22813086 2:-2.677875 
100 1:0.40599219 2:-2.685625 
100 1:0.27122852 2:-3.7273125 
100 1:0.20182617 2:-3.198125 
100 1:0.24357227 2:-2.9170625 
100 1:0.42968359 2:-4.415625 
100 1:0.27746094 2:-4.6858125 
100 1:0.16998047 2:-2.7985625 
100 1:0.11469336 2:-1.1860625 
100 1:0.34663867 2:-2.43325 
100 1:0.30842383 2:-5.3401875 
100 1:0.30995703 2:-2.99925 
100 1:0.36791797 2:-1.7798125 
100 1:0.38985742 2:-2.2789375 
100 1:0.32626953 2:-3.5511875 
100 1:0.2986543 2:-4.975125 
100 1:0.1933457 2:-2.478125 
100 1:0.19559961 2:-2.8805625 
100 1:0.22288086 2:-0.879125 
100 1:0.22076758 2:-3.50925 
100 1:0.44749609 2:-3.6575625 
100 1:0.18795117 2:-2.6435 
100 1:0.21619336 2:-3.8670625 
100 1:0.16503906 2:-2.1281875 
100 1:0.27644531 2:-2.738125 
100 1:0.21367188 2:-3.5629375 
100 1:0.22887305 2:-3.4574375 
100 1:0.23996094 2:-4.4979375 
100 1:0.34984961 2:-4.391 
100 1:0.29217773 2:-3.0855625 
100 1:0.45689844 2:-4.434625 
100 1:0.43435742 2:-3.4658125 
100 1:0.18168164 2:-1.866875 
100 1:0.1979668 2:-3.116375 
100 1:0.20913672 2:-3.9043125 
100 1:0.20894531 2:-4.481875 
100 1:0.22959961 2:-2.5274375 
100 1:0.24679883 2:-3.1264375 
100 1:0.27471484 2:-2.5206875 
100 1:0.32786133 2:-4.434 
100 1:0.30963086 2:-2.8083125 
100 1:0.38985547 2:-3.799625 
100 1:0.21798437 2:-2.28275 
100 1:0.26881055 2:-3.0364375 
100 1:0.20781641 2:-1.73425 
100 1:0.32364258 2:-0.9266875 
100 1:0.18230469 2:-3.516875 
100 1:0.20025195 2:-2.91475 
100 1:0.19434375 2:-2.10675 
100 1:0.17934961 2:-4.0168125 
100 1:0.23202734 2:-1.8263125 
100 1:0.29225195 2:-2.52325 
100 1:0.19449023 2:-2.5605 
100 1:0.22368359 2:-2.012125 
100 1:0.20332227 2:-4.2685625 
100 1:0.22722266 2:-2.2946875 
100 1:0.26252344 2:-3.743625 
100 1:0.17598047 2:-3.4860625 
100 1:0.29560156 2:-2.88125 
100 1:0.33454297 2:-4.7880625 
100 1:0.33392969 2:-4.0231875 
100 1:0.30508789 2:-5.8201875 
100 1:0.26403125 2:-4.804125 
100 1:0.19893359 2:-3.0593125 
100 1:0.25470508 2:-0.922875 
100 1:0.42402148 2:-4.7025625 
100 1:0.38944922 2:-2.8925625 
100 1:0.26929297 2:-2.8614375 
100 1:0.27592773 2:-3.5386875 
100 1:0.26537109 2:-3.0890625 
100 1:0.38280273 2:-4.365125 
100 1:0.23808984 2:-4.31375 
100 1:0.22843164 2:-2.9856875 
100 1:0.33358984 2:-2.0735 
100 1:0.47258203 2:-5.1478125 
100 1:0.27886328 2:-2.8150625 
100 1:0.33678711 2:-3.9640625 
100 1:0.24440234 2:-2.9349375 
100 1:0.29697656 2:-3.7760625 
100 1:0.25325586 2:-2.34125 
100 1:0.23811523 2:-3.25 
100 1:0.25968164 2:-4.701 
100 1:0.25855664 2:-4.6235625 
100 1:0.19732812 2:-3.4299375 
100 1:0.39165625 2:-3.201875 
100 1:0.23148828 2:-3.603875 
100 1:0.38961328 2:-2.5674375 
100 1:0.53747656 2:-5.9125 
100 1:0.49851172 2:-4.012375 
100 1:0.34680664 2:-2.6586875 
100 1:0.32651172 2:-2.089 
100 1:0.23910742 2:-3.884375 
100 1:0.22402539 2:-2.560375 
100 1:0.19187109 2:-2.8835625 
100 1:0.25475977 2:-3.0795 
100 1:0.34861719 2:-3.627625 
100 1:0.26051563 2:-3.0916875 
100 1:0.26091406 2:-2.994125 
100 1:0.18579297 2:-1.535625 
100 1:0.27365625 2:-5.3413125 
100 1:0.4163418 2:-3.113875 
100 1:0.25458203 2:-3.885375 
100 1:0.17887109 2:-3.1995625 
100 1:0.16845703 2:-3.3035 
100 1:0.1959375 2:-2.11625 
100 1:0.23158594 2:-3.2494375 
100 1:0.11993555 2:-1.763125 
100 1:0.19563672 2:-3.308 
100 1:0.34460352 2:-4.310625 
100 1:0.27666992 2:-2.86875 
100 1:0.18776562 2:-4.5545625 
100 1:0.22798828 2:-2.3349375 
100 1:0.22554688 2:-3.4891875 
100 1:0.20121484 2:-2.59925 
100 1:0.20608203 2:-3.458125 
100 1:0.20105078 2:-2.6285625 
100 1:0.30475 2:-3.782375 
100 1:0.30993359 2:-4.1353125 
100 1:0.26016406 2:-4.3838125 
100 1:0.2137168 2:-3.3163125 
100 1:0.4074082 2:-3.9875 
100 1:0.25452539 2:-1.412375 
100 1:0.27808203 2:-3.8909375 
100 1:0.24561719 2:-2.2079375 
100 1:0.28167578 2:-4.304125 
100 1:0.27562695 2:-4.340375 
100 1:0.24125 2:-3.3565 
100 1:0.23192383 2:-3.22575 
100 1:0.28276953 2:-4.7361875 
100 1:0.34100781 2:-3.5708125 
100 1:0.23352539 2:-3.975125 
100 1:0.34244141 2:-3.0976875 
100 1:0.13290039 2:-2.3090625 
100 1:0.36560547 2:-4.0115625 
100 1:0.25330078 2:-2.620125 
100 1:0.21359375 2:-2.771125 
100 1:0.32594336 2:-3.5015 
100 1:0.33538281 2:-3.271875 
100 1:0.27471094 2:-5.619875 
100 1:0.24695898 2:-2.8726875 
100 1:0.25708008 2:-4.588 
100 1:0.17051563 2:-3.0683125 
100 1:0.19397852 2:-3.848375 
100 1:0.19169922 2:-3.3955 
100 1:0.27269141 2:-2.4061875 
100 1:0.24682813 2:-3.020875 
100 1:0.21110352 2:-3.1179375 
100 1:0.31226367 2:-3.6335625 
100 1:0.3218125 2:-4.0596875 
100 1:0.34258594 2:-4.0031875 
100 1:0.3360625 2:-5.0768125 
100 1:0.18131836 2:-2.6103125 
100 1:0.16165234 2:-2.727625 
100 1:0.2047832 2:-4.6410625 
100 1:0.20130273 2:-2.4938125 
100 1:0.252875 2:-4.820875 
100 1:0.28405273 2:-2.7609375 
100 1:0.20524805 2:-3.2940625 
100 1:0.23007227 2:-3.1764375 
100 1:0.22306445 2:-2.1304375 
100 1:0.26711914 2:-3.2993125 
100 1:0.24388867 2:-4.0931875 
100 1:0.28783594 2:-4.0601875 
100 1:0.15414062 2:-2.2021875 
100 1:0.22633984 2:-2.71225 
100 1:0.24400781 2:-3.856625 
100 1:0.23644727 2:-3.2451875 
100 1:0.29218359 2:-3.6641875 
100 1:0.28443359 2:-2.0958125 
100 1:0.23073047 2:-1.6185625 
100 1:0.36822461 2:-3.207625 
100 1:0.2292832 2:-3.793375 
100 1:0.23611133 2:-4.131375 
100 1:0.43701758 2:-4.488375 
100 1:0.38616211 2:-3.214625 
100 1:0.31565234 2:-4.6780625 
100 1:0.19752148 2:-2.3913125 
100 1:0.22680664 2:-3.8293125 
100 1:0.17201758 2:-2.700875 
100 1:0.30742383 2:-3.268875 
100 1:0.27598047 2:-3.708 
100 1:0.29252734 2:-2.577 
100 1:0.27103711 2:-3.3648125 
100 1:0.32322656 2:-3.5009375 
100 1:0.22158984 2:-3.21225 
100 1:0.23028906 2:-4.82625 
100 1:0.17536328 2:-3.52325 
100 1:0.24296484 2:-4.9265625 
100 1:0.20635547 2:-3.31375 
100 1:0.20316992 2:-3.5863125 
100 1:0.34807617 2:-3.3745 
100 1:0.23117383 2:-1.6263125 
100 1:0.17340039 2:-2.8970625 
100 1:0.1824375 2:-2.253375 
100 1:0.22170898 2:-2.994125 
100 1:0.2059375 2:-3.43675 
100 1:0.18333789 2:-2.972125 
100 1:0.32995703 2:-5.0885625 
100 1:0.34518164 2:-3.089625 
100 1:0.21728125 2:-3.6040625 
100 1:0.24790234 2:-2.0054375 
100 1:0.24279883 2:-4.3206875 
100 1:0.16273437 2:-3.362 
100 1:0.14829883 2:-3.12725 
100 1:0.28289062 2:-4.6854375 
100 1:0.29769922 2:-3.3219375 
100 1:0.26974414 2:-2.4686875 
100 1:0.41063281 2:-3.0335 
100 1:0.27291406 2:-4.54875 
100 1:0.33769336 2:-4.9349375 
100 1:0.37672852 2:-2.83925 
100 1:0.27688086 2:-3.00525 
100 1:0.34779297 2:-3.0171875 
100 1:0.23342188 2:-3.4863125 
100 1:0.28263867 2:-4.5860625 
100 1:0.3217832 2:-2.419625 
100 1:0.39533594 2:-6.7176875 
100 1:0.28213672 2:-5.9331875 
100 1:0.32939453 2:-4.4934375 
100 1:0.32936133 2:-2.6848125 
100 1:0.32199414 2:-3.3899375 
100 1:0.21166602 2:-4.4863125 
100 1:0.28295508 2:-0.9159375 
100 1:0.28249219 2:-5.382 
100 1:0.37358398 2:-1.4289375 
100 1:0.45644531 2:-5.909 
100 1:0.28070703 2:-3.386625 
100 1:0.40866992 2:-6.1975625 
100 1:0.25119922 2:-4.5901875 
100 1:0.35639844 2:-5.66275 
100 1:0.29777344 2:-3.685375 
100 1:0.21851953 2:-2.33275 
100 1:0.32717578 2:-3.737625 
100 1:0.28992578 2:-2.24675 
100 1:0.35313672 2:-3.7525625 
100 1:0.24664258 2:-2.0425625 
100 1:0.38183594 2:-2.5176875 
100 1:0.36061719 2:-4.7583125 
100 1:0.24798438 2:-1.645375 
100 1:0.26118359 2:-3.87125 
100 1:0.16975977 2:-3.0816875 
100 1:0.33693945 2:-3.259875 
100 1:0.25019141 2:-3.5898125 
100 1:0.29958203 2:-3.055375 
100 1:0.23005273 2:-3.1355625 
100 1:0.26474414 2:-4.135375 
100 1:0.39456641 2:-5.40375 
100 1:0.33640234 2:-3.262875 
100 1:0.31878516 2:-2.9740625 
100 1:0.19802344 2:-3.217 
100 1:0.18999219 2:-2.8030625 
100 1:0.48124219 2:-4.2619375 
100 1:0.39850391 2:-5.1421875 
100 1:0.29498828 2:-3.6255 
100 1:0.22382227 2:-3.1024375 
100 1:0.63630273 2:-3.811125 
100 1:0.39998242 2:-5.83025 
100 1:0.30944727 2:-4.920875 
100 1:0.38100195 2:-4.0913125 
100 1:0.19657227 2:-2.5599375 
100 1:0.28523633 2:-5.0523125 
100 1:0.30372656 2:-3.7325 
100 1:0.34957617 2:-4.8681875 
100 1:0.22933008 2:-1.4585 
100 1:0.20953125 2:-2.31975 
100 1:0.33252148 2:-2.671125 
100 1:0.33732617 2:-2.0031875 
100 1:0.24621484 2:-2.1268125 
100 1:0.26848047 2:-2.389375 
100 1:0.20867188 2:-2.972625 
100 1:0.26129297 2:-3.4439375 
100 1:0.36631055 2:-4.4484375 
100 1:0.21107031 2:-2.5110625 
100 1:0.24078906 2:-3.714875 
100 1:0.36097656 2:-4.47375 
100 1:0.22273828 2:-3.67025 
100 1:0.21485938 2:-2.81125 
100 1:0.15041211 2:-2.840125 
100 1:0.26586328 2:-1.8378125 
100 1:0.16663672 2:-0.9226875 
100 1:0.33104102 2:-2.396 
100 1:0.24013281 2:-3.9851875 
100 1:0.29282812 2:-3.0000625 
100 1:0.21201367 2:-2.6100625 
100 1:0.25363281 2:-2.1921875 
100 1:0.31439063 2:-1.372 
100 1:0.32114258 2:-3.879125 
100 1:0.34213672 2:-2.21525 
100 1:0.31833984 2:-3.9101875 
100 1:0.18915625 2:-2.730375 
100 1:0.2424082 2:-4.52975 
100 1:0.12989258 2:-2.002875 
100 1:0.16420898 2:-2.2751875 
100 1:0.35279102 2:-1.1444375 
100 1:0.37254492 2:-3.54475 
100 1:0.32970117 2:-4.3779375 
100 1:0.32062891 2:-3.608625 
100 1:0.23587695 2:-3.104625 
100 1:0.20524414 2:-2.742625 
100 1:0.34828516 2:-4.4009375 
100 1:0.4075293 2:-3.602375 
100 1:0.27020117 2:-4.633875 
100 1:0.34442578 2:-4.14075 
100 1:0.28167188 2:-1.3150625 
100 1:0.33244727 2:-5.4505 
100 1:0.25854297 2:-1.9469375 
100 1:0.28335937 2:-5.64725 
100 1:0.21907617 2:-2.309 
100 1:0.20453516 2:-2.7575 
100 1:0.24589844 2:-2.381375 
100 1:0.38547461 2:-3.8594375 
100 1:0.18537305 2:-2.150125 
100 1:0.2485918 2:-3.072625 
100 1:0.2670332 2:-4.2991875 
100 1:0.32821484 2:-3.377375 
100 1:0.27573242 2:-2.024875 
100 1:0.27304883 2:-2.7235625 
100 1:0.35416211 2:-5.13225 
100 1:0.2853125 2:-2.308875 
100 1:0.35437891 2:-3.67175 
100 1:0.48145117 2:-3.388 
100 1:0.27879883 2:-4.7460625 
100 1:0.19296289 2:-2.1853125 
100 1:0.27455664 2:-1.5620625 
100 1:0.24530078 2:-2.4893125 
100 1:0.31470898 2:-5.022375 
100 1:0.37425977 2:-6.9378125 
100 1:0.18386523 2:-2.3635 
100 1:0.22955859 2:-3.2878125 
100 1:0.20196094 2:-2.5460625 
100 1:0.19316602 2:-1.945125 
100 1:0.24685352 2:-3.0428125 
100 1:0.24696484 2:-2.446625 
100 1:0.26777344 2:-3.47225 
100 1:0.25980469 2:-4.1055 
100 1:0.17983789 2:-2.21075 
100 1:0.44936328 2:-4.8013125 
100 1:0.41378516 2:-2.7640625 
100 1:0.3052793 2:-3.3136875 
100 1:0.20828906 2:-3.446375 
100 1:0.16669336 2:-3.11175 
100 1:0.24243945 2:-2.4279375 
100 1:0.55966797 2:-2.449125 
100 1:0.27969727 2:-5.0708125 
100 1:0.34248828 2:-3.007375 
100 1:0.26470703 2:-3.743375 
100 1:0.2560957 2:-3.5296875 
100 1:0.21010352 2:-2.54275 
100 1:0.33385547 2:-3.1575 
100 1:0.22311914 2:-3.4271875 
100 1:0.40074023 2:-6.8451875 
100 1:0.16269141 2:-2.1070625 
100 1:0.33954297 2:-2.632375 
100 1:0.25723242 2:-3.903625 
100 1:0.41551562 2:-4.2259375 
100 1:0.2454043 2:-2.608125 
100 1:0.16996094 2:-2.7726875 
100 1:0.27501172 2:-4.4645625 
100 1:0.33283984 2:-3.3153125 
100 1:0.30686133 2:-6.5006875 
100 1:0.26757422 2:-3.5734375 
100 1:0.27630664 2:-2.03475 
100 1:0.30235937 2:-5.8390625 
100 1:0.24019922 2:-3.4763125 
100 1:0.4194082 2:-4.9998125 
100 1:0.28808594 2:-2.365375 
100 1:0.3371582 2:-3.8149375 
100 1:0.29001562 2:-3.314 
100 1:0.29567383 2:-3.2821875 
100 1:0.2689082 2:-3.412375 
100 1:0.24613477 2:-3.1555 
100 1:0.14553125 2:-1.92825 
100 1:0.25189063 2:-3.2545 
-0.6953844819553332 1:0.28954102 2:-4.644125 
-83.26252028724799 1:0.14435352 2:-2.1880625 
-94.29867629542998 1:0.22463867 2:-4.466625 
-100 1:0.29141602 2:-3.130625 
-2.777312718100595 1:0.57900781 2:-2.849625 
-100 1:0.39012109 2:-2.077125 
-100 1:0.30213477 2:-3.89275 
-100 1:0.31361914 2:-3.78425 
-100 1:0.30116602 2:-3.454875 
-100 1:0.29473242 2:-3.053 
-49.74432293321761 1:0.41161914 2:-3.4816875 
-1.586688227043861 1:0.29694531 2:-3.1875 
-52.57595898828269 1:0.3470957 2:-5.96525 
-100 1:0.18338477 2:-1.7868125 
-26.5426294408932 1:0.21601367 2:-2.9423125 
-100 1:0.2812207 2:-4.057375 
-99.93803467616976 1:0.36934766 2:-3.1859375 
-40.3506130776159 1:0.24014258 2:-2.9931875 
-100 1:0.30149805 2:-3.2504375 
-100 1:0.20792578 2:-2.2953125 
-54.23278343311711 1:0.31355664 2:-4.3781875 
-89.25239838965338 1:0.2195957 2:-4.1358125 
-21.51475635213557 1:0.28785156 2:-4.107875 
-0.2263461673609299 1:0.31999023 2:-3.4375 
-100 1:0.25545898 2:-3.367125 
-100 1:0.28839453 2:-3.682625 
-100 1:0.17282227 2:-3.03875 
-9.137844586459709 1:0.22575 2:-0.9669375 
-99.99883281849488 1:0.27570508 2:-1.7501875 
-100 1:0.29000391 2:-4.12425 
-100 1:0.31611523 2:-3.318625 
-43.3971843209679 1:0.2853125 2:-5.6540625 
-94.15720313358025 1:0.10989844 2:-1.7845 
-98.97687198870413 1:0.17995508 2:-2.70825 
-16.28497139584309 1:0.26169922 2:-2.8788125 
-73.45631555996191 1:0.23298633 2:-2.002375 
-100 1:0.22383594 2:-2.1114375 
-100 1:0.32070508 2:-4.3083125 
-92.85582682372173 1:0.29344141 2:-5.347125 
-0.356538099582474 1:0.4480918 2:-3.61075 
-100 1:0.33624805 2:-2.221875 
-82.63627302858779 1:0.1034375 2:-2.272875 
-100 1:0.19375391 2:-2.2433125 
-3.103774033391048 1:0.17743945 2:-2.8775625 
-100 1:0.34798633 2:-4.020125 
-100 1:0.29919727 2:-3.645375 
-36.54096954145104 1:0.44145898 2:-2.5428125 
-72.39177652286523 1:0.20066016 2:-0.89125 
-100 1:0.19016016 2:-2.035125 
-100 1:0.34317578 2:-3.28275 
-97.32031599982584 1:0.42039648 2:-3.2233125 
-96.995517904275 1:0.19022461 2:-2.65175 
-1.296088033118405 1:0.11248828 2:-0.94625 
-29.22923506952301 1:0.19665234 2:-1.8435 
-100 1:0.27144727 2:-4.3475 
-29.98842520521429 1:0.11208398 2:-2.1299375 
-94.24347081093438 1:0.33174023 2:-5.8703125 
-27.79162317068274 1:0.27994922 2:-4.938125 
-100 1:0.35231641 2:-2.5646875 
-100 1:0.18875977 2:-2.61775 
-100 1:0.26806055 2:-2.1526875 
-100 1:0.27436719 2:-2.3890625 
-64.04703996888522 1:0.17658008 2:-3.196125 
-25.50059740692359 1:0.22574414 2:-2.3684375 
-100 1:0.23277148 2:-3.7389375 
-100 1:0.32558398 2:-5.3535625 
-67.60290275189853 1:0.26625781 2:-5.1054375 
-100 1:0.33800977 2:-5.073625 
-18.88334372594462 1:0.2579707 2:-2.818 
-100 1:0.29736914 2:-3.4948125 
-5.925771305467643 1:0.21820898 2:-2.6646875 
-100 1:0.28378711 2:-2.2425 
-71.31731312271656 1:0.35166406 2:-3.349 
-100 1:0.27430469 2:-2.704875 
-100 1:0.33640039 2:-2.6640625 
-100 1:0.38376562 2:-3.8575625 
-54.29879251560354 1:0.32173047 2:-4.30175 
-24.32880433091439 1:0.35373438 2:-2.158625 
-99.9995306364717 1:0.1092793 2:-0.1195 
-100 1:0.2551543 2:-2.345875 
-2.219735410927469 1:0.30709375 2:-4.985375 
-0.3755273283035966 1:0.34657227 2:-2.2581875 
-90.92479508770036 1:0.3046875 2:-2.61025 
-100 1:0.3295625 2:-2.4216875 
-100 1:0.33897266 2:-5.44625 
-100 1:0.30416992 2:-2.0409375 
-88.98927109629972 1:0.15304688 2:-2.4975 
-0.1399033463856905 1:0.19811523 2:-0.6894375 
-100 1:0.18969141 2:-2.3571875 
-84.46087410572477 1:0.3222207 2:-2.497375 
-100 1:0.27315234 2:-2.730375 
-100 1:0.17047266 2:-2.255125 
-64.72208449131774 1:0.23729883 2:-1.4004375 
-68.87929018363451 1:0.21120898 2:-3.8875625 
-9.348248607621981 1:0.15191211 2:-2.062875 
-100 1:0.34220117 2:-4.86175 
-100 1:0.16104883 2:-3.1120625 
-19.27212369470157 1:0.18749023 2:-3.19425 
-100 1:0.32707617 2:-5.3795 
-100 1:0.31063477 2:-3.77025 
-100 1:0.28365039 2:-2.8665 
-100 1:0.4319082 2:-4.9931875 
-97.32890551070088 1:0.27342773 2:-2.5523125 
-100 1:0.25826562 2:-1.6623125 
-1.4210854715202e-14 1:0.25808594 2:-4.2791875 
-100 1:0.25841797 2:-3.5398125 
-4.186330056810246 1:0.46158789 2:-6.3245 
-55.75343608370109 1:0.35771094 2:-4.2160625 
-99.99999999999999 1:0.28666016 2:-4.5425625 
-100 1:0.23962695 2:-3.3054375 
-100 1:0.24601367 2:-2.191 
-100 1:0.38256445 2:-3.61 
-100 1:0.29109961 2:-4.8304375 
-0.9010967599754109 1:0.16550391 2:-3.13475 
-100 1:0.37238281 2:-5.6673125 
-26.47307128982741 1:0.21495703 2:-1.86225 
-100 1:0.27693164 2:-3.3294375 
-100 1:0.32582617 2:-5.0324375 
-3.834995684375324 1:0.35406641 2:-3.704375 
-100 1:0.30962891 2:-2.9985 
-3.809020093414041 1:0.43521875 2:-2.7759375 
-0.4620853665711522 1:0.53756055 2:-1.4563125 
-24.18228248442816 1:0.41484961 2:-3.875875 
-95.05022357228839 1:0.25118164 2:-1.898125 
-15.80611070743673 1:0.24236328 2:-2.9716875 
-100 1:0.23749609 2:-3.4766875 
-97.28713054318088 1:0.16313281 2:-2.268625 
-59.90507449433294 1:0.25859961 2:-4.34675 
-100 1:0.23810742 2:-3.604625 
-7.287173898048952 1:0.16185547 2:-1.519125 
-100 1:0.1925 2:-3.0773125 
-95.53128889813009 1:0.22388477 2:-3.3609375 
-0.1663887636094164 1:0.13732227 2:-0.7014375 
-100 1:0.3485918 2:-4.0465625 
-0.7401857936631743 1:0.1559375 2:-0.8766875 
-0.241757561609793 1:0.44136914 2:-5.2418125 
-25.97253032684591 1:0.35276562 2:-4.7933125 
-100 1:0.20505078 2:-3.0623125 
-8.458459947572024 1:0.40429687 2:-1.10175 
-97.07558489134881 1:0.21748633 2:-2.4785 
-6.217705477549361 1:0.3195957 2:-4.8738125 
-84.04800993567767 1:0.12512305 2:-2.84225 
-100 1:0.29859766 2:-3.285875 
-100 1:0.2555332 2:-4.80425 
-100 1:0.18543555 2:-3.180375 
-100 1:0.21226953 2:-3.20225 
-100 1:0.18949023 2:-2.7203125 
-100 1:0.29157422 2:-3.5221875 
-65.06655467714371 1:0.21916016 2:-2.79625 
-26.85685334105071 1:0.65594141 2:-2.2291875 
-100 1:0.30238477 2:-4.3874375 
-100 1:0.30545898 2:-3.800375 
-100 1:0.3482832 2:-5.8353125 
-100 1:0.37054687 2:-5.4014375 
-4.056638939013013 1:0.3327168 2:-4.190125 
-100 1:0.40966797 2:-3.993875 
-100 1:0.28426953 2:-2.9063125 
-76.29886879722862 1:0.35253906 2:-2.61525 
-100 1:0.32357812 2:-3.277 
-100 1:0.13291602 2:-2.10625 
-100 1:0.30735547 2:-1.987125 
-100 1:0.43250195 2:-4.395375 
-100 1:0.27411523 2:-3.071875 
-100 1:0.28708789 2:-2.5873125 
-3.307980685469294 1:0.27220703 2:-1.8994375 
-44.2465639162989 1:0.36937305 2:-4.2505625 
-91.31946933642473 1:0.3599668 2:-4.7544375 
-30.49081659699317 1:0.22425781 2:-3.2 
-9.483069969464804 1:0.19691602 2:-3.7170625 
-100 1:0.31275195 2:-2.2413125 
-100 1:0.23359961 2:-3.19325 
-9.662484941144513 1:0.14280859 2:-2.5488125 
-100 1:0.32233594 2:-3.5528125 
-81.90045331553266 1:0.23883203 2:-4.6520625 
-26.69214181098411 1:0.10350977 2:-0.1501875 
-100 1:0.22850586 2:-1.869875 
-96.8087812653831 1:0.48700977 2:-3.3898125 
-65.51745882508006 1:0.22999023 2:-4.06075 
-100 1:0.2698418 2:-2.0849375 
-100 1:0.25077539 2:-1.1349375 
-100 1:0.41662305 2:-5.1686875 
-42.28722663484469 1:0.35747656 2:-4.5548125 
-100 1:0.36931641 2:-4.372125 
-100 1:0.31426953 2:-4.364125 
-25.63862844026562 1:0.2040625 2:-3.052875 
-96.17878879112089 1:0.22754492 2:-2.5660625 
-100 1:0.23505469 2:-3.79325 
-1.036934685437113 1:0.30395312 2:-2.4815625 
-15.10776891698193 1:0.36775195 2:-2.4995625 
-100 1:0.371 2:-3.200125 
-16.15748283553637 1:0.20070117 2:-3.3521875 
-100 1:0.15704688 2:-3.08375 
-100 1:0.25672656 2:-1.856 
-53.27619760550905 1:0.16949023 2:-1.1785 
-100 1:0.40182227 2:-3.1219375 
-100 1:0.32571484 2:-2.687 
-100 1:0.27933008 2:-2.861125 
-100 1:0.25565625 2:-1.4544375 
-100 1:0.22255859 2:-2.02525 
-32.04736056522094 1:0.14883398 2:-2.7278125 
-100 1:0.30467383 2:-2.7651875 
-100 1:0.35457227 2:-3.133 
-87.45117710019592 1:0.29856836 2:-1.3805625 
-8.291635138801256 1:0.35357227 2:-5.38325 
-100 1:0.33180273 2:-4.425125 
-100 1:0.30118164 2:-2.975875 
-100 1:0.2563418 2:-2.9838125 
-100 1:0.25343945 2:-3.0164375 
-100 1:0.19023633 2:-2.2865 
-100 1:0.14889258 2:-2.6009375 
-100 1:0.27866992 2:-3.1021875 
-94.09225771602908 1:0.2208125 2:-2.5071875 
-99.70839247541413 1:0.19649414 2:-3.4255 
-100 1:0.34758984 2:-4.6420625 
-98.41979483323597 1:0.31051172 2:-4.055625 
-13.98337301322059 1:0.12210156 2:-2.33825 
-0.07525386961985961 1:0.090236328 2:-0.73775 
-100 1:0.31465625 2:-3.7899375 
-100 1:0.22727734 2:-3.095375 
-91.96729713522305 1:0.20256055 2:-1.8050625 
-100 1:0.17264844 2:-2.9095625 
-92.0598951217906 1:0.23301758 2:-2.77575 
-90.34416543647119 1:0.20287305 2:-3.1580625 
-100 1:0.20826953 2:-2.767125 
-100 1:0.22986133 2:-2.7025625 
-0.1231580821088966 1:0.38278711 2:-1.911375 
-62.48051887293634 1:0.24349805 2:-2.2509375 
-100 1:0.33543164 2:-4.2331875 
-100 1:0.20337109 2:-3.343875 
-100 1:0.24195703 2:-3.4858125 
-46.46747207340439 1:0.28279492 2:-1.9401875 
-91.24417534552201 1:0.57983398 2:-1.5735625 
-100 1:0.29967383 2:-4.1315625 
-9.368624473045436 1:0.36720898 2:-2.2955 
-100 1:0.27999414 2:-2.9005 
-95.91688029689051 1:0.1989707 2:-1.7538125 
-100 1:0.26678906 2:-3.29475 
-100 1:0.27678516 2:-4.6961875 
-2.842170943040401e-14 1:0.4081582 2:-2.5755 
-14.38840164953145 1:0.47977344 2:-3.13125 
-100 1:0.38346484 2:-2.8445 
-70.40776410215352 1:0.14821484 2:-2.779125 
-100 1:0.20362305 2:-3.25075 
-33.54339287218086 1:0.30563672 2:-5.15925 
-100 1:0.17897656 2:-3.216625 
-100 1:0.16884961 2:-3.4281875 
-100 1:0.17573242 2:-3.1003125 
-100 1:0.29137109 2:-5.3916875 
-99.99999999999996 1:0.2184043 2:-3.258125 
-69.81662227614012 1:0.29455273 2:-1.8113125 
-100 1:0.1800625 2:-2.518875 
-2.360079002802061 1:0.067634766 2:-1.410875 
-14.3348253144766 1:0.33136133 2:-4.273 
-53.2454525992509 1:0.21296484 2:-1.6684375 
-98.57052955129544 1:0.43891406 2:-2.859 
-50.23500490375294 1:0.36124023 2:-3.3540625 
-27.26062365888392 1:0.36006641 2:-3.2760625 
-31.44271123064246 1:0.45269336 2:-4.4751875 
-6.655757853596591 1:0.40038086 2:-2.0874375 
-63.53355281984201 1:0.26485742 2:-2.1836875 
-100 1:0.30535547 2:-3.164875 
-100 1:0.25864844 2:-4.2033125 
-95.53616022983438 1:0.38073633 2:-3.9090625 
-100 1:0.16944336 2:-2.302875 
-100 1:0.33193359 2:-3.9718125 
-100 1:0.24345117 2:-3.248125 
-98.08510762618907 1:0.3564043 2:-3.6638125 
-100 1:0.44560547 2:-3.518625 
-14.99946271669059 1:0.45062109 2:-1.7868125 
-19.64559386290199 1:0.32344922 2:-5.2779375 
-100 1:0.24723047 2:-4.4385 
-100 1:0.30768945 2:-2.5954375 
-100 1:0.22320313 2:-2.806375 
-100 1:0.32263086 2:-4.926 
-100 1:0.26663086 2:-3.441375 
-0.552881878816899 1:0.37616602 2:-4.028 
-0.6840181805183749 1:0.25164063 2:-3.43575 
-22.88572910124999 1:0.24451562 2:-2.5500625 
-100 1:0.19193359 2:-1.929375 
-100 1:0.30986328 2:-2.678625 
-0.00857083486839526 1:0.33986133 2:-5.56675 
-0.4997386593669663 1:0.1796543 2:-4.172875 
-10.52805617797569 1:0.16531836 2:-0.9685 
-12.52259460831003 1:0.13053516 2:-1.8559375 
-100 1:0.28352734 2:-3.212875 
-100 1:0.2688418 2:-2.9066875 
-10.59023993056169 1:0.18485742 2:-3.0564375 
-73.57333265039578 1:0.26034961 2:-2.928375 
-89.06098563242949 1:0.26783984 2:-4.52525 
-100 1:0.20331055 2:-3.11325 
-100 1:0.20148437 2:-3.4808125 
-1.665844644071839 1:0.4159707 2:-2.448625 
-100 1:0.25285937 2:-4.1435625 
-65.15186683808774 1:0.44216406 2:-4.5275 
-100 1:0.22388477 2:-2.2773125 
-99.99999999999999 1:0.37757422 2:-4.804125 
-94.79453103557753 1:0.23153711 2:-4.829875 
-100 1:0.23161719 2:-3.56975 
-36.76574240045974 1:0.14779688 2:-0.9204375 
-100 1:0.2800332 2:-3.6730625 
-100 1:0.30330469 2:-2.7196875 
-34.36463000384649 1:0.30875 2:-3.484375 
-98.88062551440588 1:0.35018164 2:-5.125875 
-0.9853875839942409 1:0.18467578 2:-2.040125 
-100 1:0.26800977 2:-2.4195 
-100 1:0.25274414 2:-3.2659375 
-100 1:0.3000918 2:-3.7284375 
-99.99999999999999 1:0.2971875 2:-5.19825 
-0.08057757874870536 1:0.45385156 2:-2.0045625 
-100 1:0.35126758 2:-4.4229375 
-43.84327621494741 1:0.20746289 2:-3.017875 
-100 1:0.23367578 2:-2.1321875 
-100 1:0.23607227 2:-3.982375 
-100 1:0.36369922 2:-5.36625 
-100 1:0.24269336 2:-4.49325 
-100 1:0.18350195 2:-2.1923125 
-99.98296062085363 1:0.26228125 2:-1.668 
-100 1:0.3324668 2:-3.562 
-100 1:0.19701367 2:-2.13925 
-100 1:0.33487109 2:-3.044875 
-1.950905877518436 1:0.31833008 2:-2.2700625 
-100 1:0.23971289 2:-2.3139375 
-99.76644468255191 1:0.24230469 2:-3.88125 
-100 1:0.23039844 2:-3.1139375 
-33.58727146230562 1:0.17013477 2:-2.714375 
-100 1:0.14812891 2:-1.9295625 
-100 1:0.25456445 2:-3.6688125 
-2.477297845862202 1:0.20848437 2:-3.6273125 
-100 1:0.3394668 2:-2.1010625 
-100 1:0.25320117 2:-3.239875 
-100 1:0.17408984 2:-3.10925 
-49.86211511420786 1:0.41301172 2:-4.127 
-84.37794798759192 1:0.2320293 2:-1.118875 
-69.06972163840597 1:0.18617969 2:-3.2291875 
-100 1:0.30161523 2:-4.6424375 
-5.729387935708782 1:0.16998828 2:-1.1355625 
-16.74310344311025 1:0.17592578 2:-2.996875 
-100 1:0.25628516 2:-2.2579375 
-100 1:0.18808398 2:-3.4816875 
-100 1:0.32645508 2:-5.77125 
-100 1:0.41641016 2:-4.679 
-100 1:0.20323047 2:-3.2955625 
-100 1:0.27363867 2:-2.9935 
-100 1:0.29000781 2:-4.585125 
-79.23974323808289 1:0.24168555 2:-5.2645625 
-100 1:0.47579297 2:-3.768875 
-100 1:0.30931641 2:-2.750125 
-68.58574070194148 1:0.37639453 2:-2.792375 
-37.38442644560686 1:0.25284766 2:-1.5586875 
-0.9254624622547158 1:0.47471289 2:-1.781 
-20.39198098996015 1:0.64953711 2:-2.5906875 
-100 1:0.20885547 2:-2.3333125 
-0.6290997108409668 1:0.32141992 2:-2.232125 
-38.29822026650045 1:0.4513125 2:-2.75075 
-94.0054315478033 1:0.26035937 2:-1.318125 
-12.19654520717933 1:0.19900977 2:-1.1204375 
-20.41357276744952 1:0.40728906 2:-2.4464375 
-0.06515508872604134 1:0.094730469 2:-0.640625 
-100 1:0.30874805 2:-3.3035 
-100 1:0.30839453 2:-3.525375 
-83.91238631397103 1:0.22082812 2:-2.6729375 
-100 1:0.17305469 2:-1.5033125 
-100 1:0.20646875 2:-2.1166875 
-0.05649231530133145 1:0.1082207 2:-2.2316875 
-19.6614141522329 1:0.3237793 2:-4.92775 
-1.61006505605518 1:0.23383398 2:-2.8864375 
-80.08338805226163 1:0.14578711 2:-2.0193125 
-100 1:0.23659766 2:-4.324125 
-100 1:0.20718359 2:-3.8455625 
-100 1:0.12099414 2:-1.974625 
-100 1:0.17536328 2:-2.5829375 
-16.591421017312 1:0.13873633 2:-2.1679375 
-97.78026458907253 1:0.31054102 2:-4.9661875 
-100 1:0.40830859 2:-5.9036875 
-99.07812251096065 1:0.25462695 2:-3.4156875 
-2.947876600785312 1:0.10909375 2:-1.11075 
-100 1:0.21823438 2:-2.610625 
-100 1:0.38328516 2:-4.62175 
-100 1:0.35916211 2:-3.00925 
-100 1:0.25084766 2:-3.399625 
-100 1:0.46006445 2:-4.03125 
-6.637823659522177 1:0.34343359 2:-4.500875 
-100 1:0.18084375 2:-3.0259375 
-87.80740134456654 1:0.24032227 2:-2.5743125 
-100 1:0.33852344 2:-3.2181875 
-100 1:0.22622461 2:-3.44825 
-100 1:0.21264844 2:-2.9796875 
-99.83069319789352 1:0.26120508 2:-4.383875 
-100 1:0.31517969 2:-4.672375 
-100 1:0.2605957 2:-4.3708125 
-100 1:0.28069141 2:-5.3175625 
-16.370349409325 1:0.37671289 2:-4.9030625 
-41.69030030519668 1:0.16407617 2:-2.637875 
-4.464809969870724 1:0.17954883 2:-3.3505625 
-100 1:0.29611914 2:-4.7405 
-20.57839638504617 1:0.24398438 2:-3.719375 
-100 1:0.18132617 2:-3.2220625 
-100 1:0.27832031 2:-3.4939375 
-100 1:0.20948242 2:-3.10625 
-2.228264813414762 1:0.18408398 2:-1.84125 
-100 1:0.27375977 2:-5.0396875 
-100 1:0.32245703 2:-3.907375 
-100 1:0.31895703 2:-3.3794375 
-55.36199277513904 1:0.22771875 2:-1.64375 
-46.83460289977431 1:0.16963086 2:-3.181375 
-72.02887934230905 1:0.30602148 2:-4.477625 
-100 1:0.40238867 2:-4.4288125 
-8.680530663575285 1:0.33367383 2:-4.751375 
-100 1:0.32538672 2:-5.82175 
-92.00397294989376 1:0.21819531 2:-2.891375 
-100 1:0.27311133 2:-4.796125 
-2.810978796629774 1:0.21941992 2:-4.12225 
-61.37692643731429 1:0.23110156 2:-3.36125 
-68.69235228316255 1:0.29571094 2:-2.205125 
-100 1:0.33814844 2:-3.5335 
-1.4210854715202e-14 1:0.36611328 2:-5.1491875 
-100 1:0.38274023 2:-5.827375 
-95.97937243588687 1:0.44792773 2:-5.903 
-100 1:0.17069531 2:-1.9250625 
-100 1:0.28618945 2:-3.7015625 
-100 1:0.22406641 2:-3.3175 
-45.98532539238885 1:0.43747852 2:-3.440125 
-100 1:0.27617578 2:-2.6374375 
-100 1:0.18489648 2:-2.2105625 
-49.88173540760854 1:0.26166016 2:-2.042 
-100 1:0.27364648 2:-2.1978125 
-100 1:0.28428125 2:-3.5425 
-100 1:0.20431055 2:-3.3575625 
-90.19412041200934 1:0.26501562 2:-3.754625 
-100 1:0.32287109 2:-2.40375 
-100 1:0.22468359 2:-4.2766875 
-87.08216585064505 1:0.34345898 2:-3.634875 
-95.0254023486919 1:0.37326563 2:-4.7308125 
-100 1:0.31027734 2:-5.6106875 
-56.94080581420697 1:0.23668945 2:-3.4695625 
-100 1:0.28167578 2:-3.8419375 
-100 1:0.31989258 2:-1.6335625 
-100 1:0.26767578 2:-4.910625 
-100 1:0.1943125 2:-3.39925 
-100 1:0.27155469 2:-3.040875 
-2.723926125247951 1:0.23113867 2:-2.8440625 
-100 1:0.32640039 2:-3.9146875 
-100 1:0.31301172 2:-2.7151875 
-15.57470832330559 1:0.35870508 2:-2.239875 
-100 1:0.25422266 2:-2.438875 
-0.8729053374053183 1:0.29933594 2:-5.2721875 
-100 1:0.37899609 2:-6.203375 
-100 1:0.24639453 2:-3.246 
-100 1:0.37616406 2:-3.7056875 
-56.56178463479969 1:0.32193164 2:-3.7441875 
-68.71502451375562 1:0.39700391 2:-2.647125 
-29.95890779020998 1:0.25590625 2:-4.9785625 
-100 1:0.26407422 2:-4.263 
-100 1:0.38800586 2:-4.0814375 
-15.98250261815145 1:0.54441992 2:-4.3748125 
-15.8231974621562 1:0.25509375 2:-4.5146875 
-100 1:0.2839375 2:-3.751 
-100 1:0.23816016 2:-3.161375 
-81.4109363789548 1:0.25346875 2:-4.811125 
-100 1:0.21389453 2:-2.7635625 
-100 1:0.4066875 2:-5.1200625 
-75.26191418256181 1:0.44498437 2:-3.3908125 
-100 1:0.24638867 2:-2.7195625 
-82.91014214991301 1:0.23267969 2:-4.1489375 
-100 1:0.26486133 2:-3.8655625 
-70.77211409358523 1:0.23514258 2:-3.5215 
-100 1:0.23749609 2:-3.3665625 
-100 1:0.32280273 2:-2.0461875 
-87.99044642403543 1:0.25026758 2:-2.719625 
-100 1:0.19875 2:-2.709875 
-100 1:0.22943555 2:-3.31275 
-2.003771624707906 1:0.19564844 2:-3.46 
-47.40295773733387 1:0.32263086 2:-5.6656875 
-100 1:0.22701367 2:-3.6714375 
-100 1:0.34041602 2:-3.856875 
-3.253703791225076 1:0.13015625 2:-2.3803125 
-100 1:0.22355273 2:-2.8776875 
-92.90497050615339 1:0.22679297 2:-4.1190625 
-2.796599909929866 1:0.3072793 2:-4.848875 
-65.63536999615349 1:0.33467969 2:-3.48525 
-96.98724193008846 1:0.25717773 2:-2.1083125 
-100 1:0.19644141 2:-2.87675 
-100 1:0.30219531 2:-2.524375 
-86.25726224880128 1:0.23557227 2:-1.9678125 
-100 1:0.20242773 2:-2.74125 
-5.867399141273334 1:0.076214844 2:-0.8195 
-100 1:0.34413281 2:-2.960375 
-22.39480209344097 1:0.31198242 2:-2.8375 
-100 1:0.26255859 2:-3.6566875 
-100 1:0.2154375 2:-2.541125 
-13.98256695728788 1:0.10350391 2:-2.0674375 
-100 1:0.30563867 2:-1.884125 
-100 1:0.19974219 2:-2.46175 
-84.12387791346592 1:0.18863477 2:-2.969625 
-0.1108478976705578 1:0.17387305 2:-3.586375 
-0.3339200678918983 1:0.52775391 2:-2.3980625 
-3.324839763366057 1:0.23406836 2:-3.316875 
-100 1:0.40715039 2:-4.4429375 
-100 1:0.32638281 2:-2.101875 
-99.99999999999999 1:0.32921094 2:-5.0735625 
-35.40309092809299 1:0.24328906 2:-4.71675 
-0.0009016740502545417 1:0.28778516 2:-4.2623125 
-75.12717380279945 1:0.25937695 2:-3.4583125 
-100 1:0.26649414 2:-2.323875 
-100 1:0.23976953 2:-3.0374375 
-100 1:0.3078125 2:-3.290375 
-32.88876575547764 1:0.34035352 2:-2.68275 
-100 1:0.40748633 2:-4.45825 
-80.53649645867094 1:0.29189063 2:-3.62475 
-64.17839810477766 1:0.2967832 2:-3.249875 
-100 1:0.17468945 2:-3.070375 
-100 1:0.21849805 2:-2.5488125 
-0.4674940692684222 1:0.087019531 2:-2.105 
-100 1:0.35793945 2:-3.3578125 
-67.87918286678475 1:0.39500586 2:-4.4770625 
-1.322092078990962 1:0.40707813 2:-1.1791875 
-1.4210854715202e-14 1:0.33401758 2:-3.5395 
-99.76049179283999 1:0.3845 2:-6.7055 
-9.494341098901069 1:0.26119531 2:-2.6723125 
-100 1:0.29471289 2:-3.5785625 
-0.3072282704326752 1:0.28891602 2:-1.8748125 
-22.7353330991901 1:0.33593555 2:-1.454375 
-100 1:0.17535547 2:-2.8948125 
-82.10385798772096 1:0.28694336 2:-2.7929375 
-100 1:0.27701758 2:-4.0153125 
-100 1:0.23787109 2:-4.0896875 
-100 1:0.19197266 2:-3.4304375 
-88.18233738367729 1:0.38234766 2:-2.281625 
-100 1:0.31888086 2:-3.5965625 
-100 1:0.2569082 2:-4.61875 
-100 1:0.26847266 2:-2.5329375 
-2.229492998575734 1:0.082671875 2:-0.6861875 
-0.8095933187892883 1:0.43425977 2:-1.4025 
-100 1:0.26769531 2:-4.6426875 
-100 1:0.25650781 2:-4.108625 
-100 1:0.29880859 2:-4.723125 
-73.29237380678012 1:0.3109375 2:-4.4159375 
-100 1:0.28121875 2:-5.2725 
-100 1:0.24784766 2:-3.7591875 
-23.3286959893754 1:0.20846289 2:-1.83875 
-0.3923119373436098 1:0.41257227 2:-1.71725 
-100 1:0.434875 2:-4.560125 
-100 1:0.20086914 2:-3.31725 
-100 1:0.23933203 2:-3.2325625 
-100 1:0.23986133 2:-2.677 
-100 1:0.29330469 2:-2.6145 
-0.1630362062935689 1:0.14902148 2:-2.405 
-32.66263393409875 1:0.20203516 2:-1.9925 
-21.50570220569261 1:0.11264453 2:-1.797 
-97.93558045059837 1:0.21791797 2:-3.83625 
-100 1:0.40345508 2:-5.1710625 
-0.9147133609030286 1:0.3658125 2:-1.961625 
-93.36462106383729 1:0.3132207 2:-2.439 
-100 1:0.29119141 2:-3.1743125 
-100 1:0.32254492 2:-3.2290625 
-100 1:0.31914844 2:-4.2864375 
-100 1:0.24187695 2:-2.55675 
-100 1:0.25369141 2:-3.0723125 
-1.4210854715202e-14 1:0.23804687 2:-3.332625 
-100 1:0.34460547 2:-4.783125 
-4.564371227018943 1:0.074298828 2:-1.0331875 
-100 1:0.17753906 2:-2.79 
-12.06923995351548 1:0.35224805 2:-6.4756875 
-100 1:0.27748437 2:-4.232625 
-20.79310999044856 1:0.17530078 2:-0.9114375 
-5.502239666586936 1:0.32876367 2:-2.7605 
-100 1:0.36598633 2:-2.9008125 
-15.91518842017637 1:0.40342578 2:-6.348125 
-43.57606076522263 1:0.20699023 2:-4.0103125 
-0.0007875299643842453 1:0.1322207 2:-0.179 
-100 1:0.23747656 2:-3.9735 
-100 1:0.34011523 2:-4.4020625 
-78.07736697083047 1:0.28536914 2:-4.698875 
-100 1:0.22978125 2:-3.6273125 
-100 1:0.19501367 2:-2.6203125 
-0.3007783556587029 1:0.3259375 2:-5.6773125 
-72.93468247061109 1:0.32942969 2:-1.7116875 
-100 1:0.24066016 2:-2.2091875 
-100 1:0.25251953 2:-4.5294375 
-57.91766588529485 1:0.18887891 2:-3.604375 
-100 1:0.25153516 2:-2.034125 
-100 1:0.28387695 2:-3.0823125 
-0.08850825781042733 1:0.29637891 2:-4.25375 
-100 1:0.30863281 2:-4.3255 
-34.84845936205213 1:0.30291602 2:-0.991625 
-0.5425342744448116 1:0.31554102 2:-1.5011875 
-98.88986044555539 1:0.22609766 2:-3.4574375 
-98.38993494394482 1:0.24112305 2:-2.88025 
-100 1:0.30484766 2:-2.807 
-8.958973750506658 1:0.10355469 2:-1.358375 
-100 1:0.23308594 2:-1.8355 
-100 1:0.34263672 2:-3.112 
-7.279538991467057 1:0.27044922 2:-2.3269375 
-100 1:0.28905078 2:-3.00425 
-91.47504911083864 1:0.25748828 2:-0.9090625 
-25.89868987536194 1:0.29331641 2:-4.4920625 
-3.442827284158322 1:0.2550293 2:-2.693875 
-8.201817880288168 1:0.32716602 2:-2.767 
-100 1:0.30524609 2:-3.7535625 
-100 1:0.27432422 2:-2.5110625 
-1.4210854715202e-14 1:0.20570898 2:-3.3461875 
-100 1:0.23525781 2:-3.2718125 
-4.576305696822042 1:0.22480859 2:-2.255625 
-97.57464523605361 1:0.3448418 2:-4.1620625 
-100 1:0.26429297 2:-4.2974375 
-1.703715498786398 1:0.4512207 2:-2.2161875 
-100 1:0.27839258 2:-5.0685 
-100 1:0.4003418 2:-4.8186875 
-3.283763816438403 1:0.21882617 2:-0.8991875 
-100 1:0.27323828 2:-3.409 
-88.55762510470963 1:0.18985547 2:-2.84425 
-50.31991583543465 1:0.32971875 2:-3.6864375 
-100 1:0.2912832 2:-3.3300625 
-92.69128904649089 1:0.28565039 2:-3.8091875 
-100 1:0.30180859 2:-2.16275 
-100 1:0.23851953 2:-4.312625 
-37.1386761705446 1:0.27366016 2:-3.7085625 
-100 1:0.27574414 2:-3.3558125 
-69.51244981316962 1:0.35397656 2:-1.859625 
-100 1:0.29921875 2:-5.0480625 
-100 1:0.24925391 2:-4.0321875 
-34.47574674593984 1:0.5656875 2:-1.8881875 
-33.50047866220521 1:0.046820312 2:-0.9586875 
-79.17910081308725 1:0.3006875 2:-3.8331875 
-17.79548050233891 1:0.31645703 2:-4.6393125 
-99.03229239314112 1:0.21903711 2:-2.3874375 
-100 1:0.21078516 2:-3.50975 
-100 1:0.25639453 2:-2.3706875 
-100 1:0.23586719 2:-4.0855 
-19.13071576855531 1:0.27562305 2:-3.7109375 
-100 1:0.20561914 2:-2.3905625 
-100 1:0.24608203 2:-2.3425625 
-100 1:0.38394531 2:-3.999875 
-0.1044290074193363 1:0.37617578 2:-6.118875 
-100 1:0.32371484 2:-4.491375 
-0.01707285384971044 1:0.2517832 2:-5.5881875 
-22.15100371974156 1:0.21400977 2:-3.7804375 
-100 1:0.24474805 2:-3.388625 
-24.34990245750138 1:0.11748047 2:-2.1705 
-99.11546457182571 1:0.24755078 2:-4.476 
-77.45681139308988 1:0.20381836 2:-2.5619375 
-100 1:0.32654883 2:-4.3288125 
-4.809712965964474 1:0.19230078 2:-1.6540625 
-100 1:0.24578125 2:-3.537125 
-100 1:0.29326953 2:-4.7504375 
-100 1:0.28910742 2:-3.9309375 
-49.62440826871377 1:0.18764453 2:-4.048125 
-100 1:0.22599414 2:-1.5581875 
-99.87728837864023 1:0.17244727 2:-3.071125 
-100 1:0.1760957 2:-3.3080625 
-100 1:0.29321875 2:-3.302 
-100 1:0.39125781 2:-2.5903125 
-5.236138472972291 1:0.24329687 2:-3.3068125 
-100 1:0.2700332 2:-3.06725 
-99.86462588025447 1:0.34260937 2:-1.451625 
-1.974292461611021 1:0.32796484 2:-5.77075 
-73.54444285730156 1:0.28 2:-4.6884375 
-100 1:0.22643555 2:-2.9925625 
-100 1:0.20046875 2:-2.5005 
-20.42062098676307 1:0.23964258 2:-3.02975 
-100 1:0.23572656 2:-3.5988125 
-16.93474111174763 1:0.5255957 2:-5.70775 
-100 1:0.29725 2:-3.954375 
-100 1:0.25719141 2:-3.743625 
-100 1:0.35893164 2:-4.5775 
-100 1:0.20554492 2:-3.8453125 
-40.61379383615438 1:0.3027832 2:-1.9758125 
-100 1:0.19458008 2:-3.5919375 
-95.32000928599741 1:0.60116992 2:-1.4695625 
-8.57734772393834 1:0.54976758 2:-0.798875 
-100 1:0.24304883 2:-3.1459375 
-100 1:0.26878906 2:-2.6270625 
-100 1:0.26645117 2:-3.9381875 
-66.1206937318054 1:0.21803711 2:-2.5533125 
-94.34056068581774 1:0.20837891 2:-3.922875 
-64.1181241558108 1:0.27570117 2:-2.78825 
-6.852400247096898 1:0.44528125 2:-3.1585 
-1.399378012135225 1:0.12339844 2:-2.0333125 
-100 1:0.17652344 2:-2.8240625 
-100 1:0.27764062 2:-4.09275 
-100 1:0.41494922 2:-6.254125 
-100 1:0.26510352 2:-4.29625 
-100 1:0.13169336 2:-2.097 
-100 1:0.26779102 2:-3.713875 
-100 1:0.2089707 2:-2.9054375 
-100 1:0.22067578 2:-3.08325 
-100 1:0.27551563 2:-4.810875 
-2.842170943040401e-14 1:0.3272793 2:-5.0328125 
-17.87752481506491 1:0.17580078 2:-1.0739375 
-8.097531489298239 1:0.24606641 2:-4.011125 
-21.64626169076087 1:0.27303906 2:-3.137875 
-100 1:0.27775586 2:-1.43175 
-74.41844965812804 1:0.33358203 2:-3.0415 
-100 1:0.23399219 2:-2.62225 
-4.161123540177281 1:0.068048828 2:-0.315 
-100 1:0.29649805 2:-4.5945 
-99.99999999999997 1:0.29299805 2:-3.0075 
-0.03563067350800921 1:0.15857227 2:-0.69325 
-14.98556422993561 1:0.12005273 2:-2.1151875 
-6.038074597411001 1:0.2595918 2:-3.181375 
-100 1:0.41676953 2:-3.57375 
-13.66125104239737 1:0.22242773 2:-3.79525 
-80.02986847969916 1:0.32204492 2:-2.8611875 
-100 1:0.42836523 2:-3.6604375 
-75.31525501554977 1:0.51585742 2:-6.6545 
-52.3660515494675 1:0.2102168 2:-2.0330625 
-1.028832802778515 1:0.23089453 2:-1.5915 
-100 1:0.32889453 2:-3.90775 
-100 1:0.42361328 2:-2.841875 
-98.26426573578746 1:0.37932617 2:-3.9695 
-100 1:0.36358984 2:-4.906375 
-100 1:0.40974609 2:-6.5911875 
-100 1:0.19191992 2:-3.187125 
-100 1:0.21165039 2:-2.319875 
-94.51338342206004 1:0.40747852 2:-2.684 
-0.2935356960212745 1:0.13687305 2:-2.3974375 
-53.42521206591944 1:0.35107031 2:-5.908875 
-65.57364805089811 1:0.24916992 2:-4.545 
-2.076487847102942 1:0.34483398 2:-3.801125 
-100 1:0.21091211 2:-2.560125 
-33.5147156098596 1:0.34125391 2:-1.1159375 
-100 1:0.32591797 2:-3.0913125 
-100 1:0.28278906 2:-2.4069375 
-100 1:0.27977539 2:-2.3631875 
-0.9972089304254856 1:0.33852734 2:-1.579375 
-100 1:0.39264844 2:-5.5818125 
-100 1:0.43819336 2:-6.483 
-19.6686545931625 1:0.32016211 2:-4.0165625 
-64.83499352680832 1:0.27573828 2:-4.6065625 
-100 1:0.36439648 2:-3.8094375 
-35.81145488455017 1:0.49329102 2:-2.5065625 
-100 1:0.37252148 2:-3.554625 
-100 1:0.18317383 2:-2.6414375 
-34.32495645890104 1:0.27653906 2:-1.923375 
-100 1:0.31548633 2:-4.1495 
-100 1:0.22942383 2:-3.4251875 
-100 1:0.1554707 2:-1.6245625 
-100 1:0.27089063 2:-2.5478125 
-100 1:0.36656836 2:-4.133375 
-49.15739466656808 1:0.22366797 2:-1.3763125 
-87.4987094934917 1:0.29265039 2:-4.442625 
-100 1:0.15616992 2:-2.4105 
-100 1:0.24126758 2:-2.4735 
-100 1:0.27514453 2:-3.4434375 
-12.97509924377503 1:0.33832227 2:-4.7073125 
-0.06750270511368964 1:0.4300293 2:-5.5360625 
-100 1:0.25279492 2:-3.1105 
-100 1:0.39370508 2:-2.9211875 
-55.51790872164798 1:0.2762207 2:-0.91625 
